<?xml version="1.0"?>
<opencv_storage>
<my_svm type_id="opencv-ml-svm">
  <svm_type>C_SVC</svm_type>
  <kernel><type>RBF</type>
    <gamma>5.0000000000000000e-01</gamma></kernel>
  <C>8.</C>
  <term_criteria><epsilon>1.1920928955078125e-07</epsilon>
    <iterations>1000</iterations></term_criteria>
  <var_all>64</var_all>
  <var_count>64</var_count>
  <class_count>2</class_count>
  <class_labels type_id="opencv-matrix">
    <rows>1</rows>
    <cols>2</cols>
    <dt>i</dt>
    <data>
      0 1</data></class_labels>
  <sv_total>283</sv_total>
  <support_vectors>
    <_>
      -1.47326180e-04 -9.54252100e-05 1.99323971e-04 2.17814755e-04
      -2.57479696e-04 -1.11130299e-03 2.01821700e-03 2.44049612e-03
      -1.19806302e-03 -1.66619662e-03 4.40630130e-03 2.23574694e-03
      1.80211471e-04 -1.80154675e-04 3.41723266e-04 3.73175018e-04
      -6.43177330e-03 -1.39361275e-02 6.79462729e-03 1.53939817e-02
      -1.54334322e-01 -3.93644542e-01 1.73344970e-01 3.94353449e-01
      2.06499889e-01 -8.41501951e-02 4.33709592e-01 1.98092744e-01
      1.44994410e-03 -5.49288525e-04 1.98918604e-03 4.68322868e-03
      -2.27089357e-02 -4.24634255e-02 2.72665881e-02 6.28474578e-02
      9.26286541e-03 3.93579267e-02 1.47813573e-01 2.10888565e-01
      3.67369950e-01 3.42711844e-02 3.71359438e-01 4.19505425e-02
      2.67394789e-04 1.21792115e-03 1.00848021e-03 3.52799101e-03
      6.11829048e-04 -8.67327908e-04 1.91142561e-03 1.99317117e-03
      7.19887437e-04 -9.41990176e-04 2.34340113e-02 1.37314294e-02
      5.30565530e-02 1.20868487e-02 5.60627431e-02 1.90357678e-02
      -2.43703005e-04 -9.99940676e-04 3.60245933e-04 1.71478197e-03</_>
    <_>
      2.26295851e-05 -5.00062772e-04 4.61709918e-04 6.03785214e-04
      -5.73852425e-03 -6.97261235e-03 7.65668135e-03 7.56049948e-03
      5.98372519e-03 -1.50645804e-02 1.09696556e-02 1.65014770e-02
      -2.82639259e-04 4.80133574e-04 6.06863352e-04 1.14710897e-03
      -4.25682366e-02 8.37404653e-03 4.29378971e-02 5.05151786e-02
      -1.35354578e-01 -1.32570222e-01 1.73158661e-01 2.72552222e-01
      3.84933501e-01 -9.56619084e-02 3.88770133e-01 1.19449817e-01
      -7.46764708e-04 2.69348198e-03 5.69827901e-03 4.41575143e-03
      2.60084844e-03 7.92707258e-04 4.61170683e-03 4.08630865e-03
      -2.15511963e-01 3.26237410e-01 2.30587825e-01 3.44324112e-01
      2.28963301e-01 1.71174183e-01 2.99967706e-01 1.82753220e-01
      -1.77080440e-03 -1.19271292e-03 2.58748769e-03 6.57092035e-03
      8.85999412e-04 -2.39971065e-04 1.19604392e-03 3.76972166e-04
      -6.45463588e-04 -1.17791886e-03 3.27532622e-03 4.78718011e-03
      3.29434042e-05 -3.76805826e-03 4.46678326e-03 4.90644015e-03
      -4.70322593e-05 -1.15305556e-04 7.53152533e-04 7.03877711e-04</_>
    <_>
      1.17662968e-03 8.80310472e-05 1.74679852e-03 1.54366274e-03
      1.46840094e-02 2.45946161e-02 2.47727372e-02 2.61306446e-02
      -2.81588640e-02 -5.40584978e-03 3.19198146e-02 1.00784926e-02
      5.13117760e-03 -1.89131510e-03 5.22274012e-03 4.50656284e-03
      1.85950287e-02 2.62546372e-02 3.02290954e-02 3.15583758e-02
      -2.40270957e-01 -2.80720800e-01 2.74488986e-01 3.07465613e-01
      2.34522015e-01 -7.93883950e-02 2.93282181e-01 2.38892868e-01
      8.33835360e-03 2.54354067e-02 1.28320679e-02 2.87974887e-02
      -5.86345047e-03 -2.71544084e-02 2.04186775e-02 3.02190352e-02
      -1.49215281e-01 3.17293286e-01 2.38663808e-01 3.38884979e-01
      2.15970993e-01 1.91559777e-01 2.41167560e-01 2.01083228e-01
      -4.57131490e-03 -2.79424037e-03 7.81575963e-03 5.22128912e-03
      1.11567625e-03 4.66096168e-03 9.92328301e-03 5.01507893e-03
      2.24726200e-02 8.75617145e-04 2.31366269e-02 9.78328567e-03
      -7.10966671e-03 6.24019653e-04 8.87928996e-03 9.32358857e-03
      -5.86995331e-04 3.57355108e-04 7.80404836e-04 1.10930961e-03</_>
    <_>
      -1.14119775e-03 -5.15218452e-03 2.90291710e-03 5.18609257e-03
      1.45337535e-02 -1.72220205e-03 1.81409679e-02 1.21486010e-02
      -2.39474722e-03 4.71416209e-03 6.14109309e-03 7.15040881e-03
      1.26418576e-03 7.76474073e-04 1.37617684e-03 8.85644520e-04
      -5.91412932e-03 2.86364872e-02 1.47932312e-02 3.90234776e-02
      -1.43017769e-01 -2.00543642e-01 2.40642354e-01 2.96868503e-01
      2.52760053e-01 -1.92407399e-01 2.63729542e-01 2.46435612e-01
      -1.35553046e-03 9.39026196e-03 4.36606351e-03 9.53099690e-03
      1.19860424e-02 -1.73826721e-02 1.50981182e-02 2.20788624e-02
      -2.29355067e-01 2.54865974e-01 2.76843071e-01 2.91885704e-01
      2.78246909e-01 1.93983376e-01 3.18094760e-01 2.37582058e-01
      2.23040977e-03 -1.73875932e-02 1.07916379e-02 2.82305367e-02
      -1.42977620e-03 -1.22459314e-03 1.79930602e-03 1.53932488e-03
      2.92071160e-02 -1.27557358e-02 2.92071160e-02 2.42643151e-02
      -1.65300723e-02 1.10421795e-02 2.05557402e-02 1.67802479e-02
      -2.46684183e-03 -1.18301122e-03 1.22342966e-02 1.54541098e-02</_>
    <_>
      5.18647605e-04 -1.09616632e-03 1.09179574e-03 2.23011733e-03
      4.62396163e-03 1.15098376e-02 1.92086790e-02 1.51546700e-02
      -3.89172062e-02 2.90992614e-02 4.77131046e-02 4.82035801e-02
      7.96025898e-03 4.89061559e-03 8.46542884e-03 6.29653595e-03
      3.45338532e-03 1.66916400e-02 1.38532324e-02 1.96829550e-02
      -2.83446878e-01 -2.23627225e-01 3.18058282e-01 2.45200664e-01
      3.00906837e-01 -4.32003625e-02 3.35598499e-01 2.20340058e-01
      -7.34972022e-03 5.30585321e-03 1.19731799e-02 7.38083385e-03
      -6.05594600e-03 -3.41317151e-03 6.92372024e-03 5.21456869e-03
      -1.90607205e-01 2.44642869e-01 2.67298698e-01 2.93176591e-01
      2.21323028e-01 1.48911417e-01 2.75288641e-01 1.80060580e-01
      -6.48028450e-03 -1.16133003e-03 7.47219939e-03 5.03644068e-03
      -1.29732238e-02 -2.46621738e-03 1.30380224e-02 6.41459506e-03
      5.17109409e-02 -2.95889899e-02 6.22546934e-02 6.75130635e-02
      -6.84855552e-03 -2.47803703e-03 7.89299235e-03 4.84502874e-03
      -7.04520324e-04 1.36555755e-03 7.53446831e-04 1.42421445e-03</_>
    <_>
      4.51146945e-04 -7.75604835e-03 1.86357019e-03 8.00811872e-03
      7.15679768e-03 2.96763843e-03 1.21279834e-02 1.07898815e-02
      -6.50682661e-04 6.70185219e-03 3.57154012e-03 8.26572999e-03
      -1.09411973e-04 -4.35177993e-04 7.60655093e-04 5.89310017e-04
      9.41064674e-03 3.58373597e-02 3.07617448e-02 6.39265031e-02
      -1.47942662e-01 -2.51045793e-01 2.87274778e-01 2.92832464e-01
      2.44582221e-01 -2.00307041e-01 2.62895286e-01 2.33608305e-01
      -1.52263232e-03 9.99433640e-03 7.40662264e-03 1.05023785e-02
      -9.58636752e-04 2.45721033e-03 5.81244240e-03 5.29081235e-03
      -2.31097937e-01 2.19875261e-01 2.40358382e-01 2.24448562e-01
      2.88698405e-01 1.75605491e-01 3.41675013e-01 2.62141466e-01
      -1.16712023e-02 -4.35465500e-02 3.63232382e-02 4.51382473e-02
      3.33002768e-04 2.08894518e-04 8.52704979e-04 5.52910846e-04
      4.65420494e-03 1.51262688e-03 6.29074173e-03 3.29095707e-03
      -3.76682752e-03 1.00044440e-02 1.24943014e-02 1.00847268e-02
      -5.16810128e-03 1.27739497e-02 1.11796763e-02 1.27944509e-02</_>
    <_>
      -2.38987923e-04 3.97113094e-04 4.64334706e-04 6.37399789e-04
      -6.14349125e-03 6.43433863e-03 6.30580541e-03 6.93958718e-03
      -3.83261926e-02 3.02851424e-02 4.23816778e-02 4.56577614e-02
      1.02641014e-02 5.36000542e-03 1.03679337e-02 1.01365177e-02
      -7.72901671e-03 4.07218002e-03 7.72901671e-03 4.71699238e-03
      -2.72580832e-01 -2.09551975e-01 2.74621934e-01 2.44473353e-01
      2.59777129e-01 -1.26298368e-01 2.93076634e-01 2.76665926e-01
      -5.40908054e-03 3.97280091e-03 9.65715107e-03 1.24002052e-02
      -7.68290088e-03 -1.01879407e-02 9.82004590e-03 1.93967838e-02
      -2.59325266e-01 2.46246353e-01 2.88780302e-01 3.09330761e-01
      2.28201181e-01 1.78533822e-01 2.44267061e-01 1.90921843e-01
      -8.13865382e-03 1.68650760e-03 8.52911919e-03 4.71128616e-03
      -1.02391709e-02 -8.26061703e-04 1.02678286e-02 6.94601145e-03
      3.66303474e-02 -1.47677502e-02 4.80395816e-02 3.67022492e-02
      -3.21282516e-03 -6.10469840e-03 8.56297277e-03 8.39649327e-03
      -4.57442249e-04 5.80237480e-04 5.17642067e-04 7.48545222e-04</_>
    <_>
      1.95107399e-03 -9.46091115e-03 8.66357889e-03 1.03577571e-02
      9.82369855e-03 7.44723855e-03 1.50205288e-02 1.59847140e-02
      -6.35918183e-03 6.51134551e-03 7.84734637e-03 8.25286098e-03
      1.09390984e-03 3.09996249e-04 1.31830468e-03 9.66133608e-04
      8.41994677e-03 4.53165136e-02 2.84620393e-02 5.01370132e-02
      -1.29951477e-01 -2.23001704e-01 2.54784495e-01 2.88726926e-01
      2.03719392e-01 -1.78163067e-01 2.58276820e-01 2.86157191e-01
      -4.13318770e-03 1.35318786e-02 7.78785627e-03 1.35318786e-02
      2.00425275e-03 4.53348225e-03 4.30478575e-03 4.84596426e-03
      -2.70742655e-01 2.36190662e-01 2.85393000e-01 2.41889372e-01
      2.65592933e-01 1.68405101e-01 3.48157734e-01 2.45463520e-01
      -5.50660677e-03 -4.63478938e-02 2.52683461e-02 4.98294830e-02
      4.20527096e-04 2.74723483e-04 4.56084410e-04 3.17796570e-04
      1.14998419e-03 2.18637497e-03 4.60804254e-03 3.04471236e-03
      -1.79965291e-02 1.43027231e-02 2.05202736e-02 1.54202953e-02
      -3.64645710e-03 7.81907607e-03 9.19100922e-03 9.34393052e-03</_>
    <_>
      -2.43554299e-04 3.40193437e-05 8.84000037e-04 5.33856452e-04
      -1.32877864e-02 2.38474016e-03 1.58372056e-02 6.48150500e-03
      1.25042396e-02 6.72171917e-03 1.29168220e-02 1.28876437e-02
      -8.81336397e-04 -5.56486484e-05 2.14294228e-03 8.92646844e-04
      -2.20238708e-05 2.12755660e-03 5.27106412e-03 4.26828489e-03
      -2.84488946e-01 -1.21524043e-01 3.28883439e-01 1.87052950e-01
      3.14567417e-01 -1.07574709e-01 3.19469184e-01 1.57019794e-01
      -1.06497165e-02 2.28396524e-03 1.75544415e-02 8.74048565e-03
      4.99406538e-04 -5.55107696e-03 7.62114301e-03 8.40891059e-03
      -3.17239553e-01 1.70413628e-01 3.27084422e-01 1.80864334e-01
      3.27667266e-01 1.16596580e-01 3.39757085e-01 1.21392392e-01
      -9.95960366e-03 -4.61531483e-04 1.57655515e-02 1.35014504e-02
      -8.57874227e-04 -7.31922220e-04 7.75136938e-03 8.18933826e-03
      6.90195570e-03 -8.61407444e-03 1.88348815e-02 2.08752677e-02
      2.68226489e-03 -1.11407433e-04 7.53022078e-03 4.34122561e-03
      -1.69768767e-03 3.28117429e-04 2.63189361e-03 6.87162683e-04</_>
    <_>
      1.60583435e-03 -1.58663432e-03 1.65958621e-03 1.75910490e-03
      6.63197180e-03 -1.49408067e-02 1.30096935e-02 1.67857241e-02
      -3.38835712e-03 3.40337865e-03 7.12253852e-03 7.73319090e-03
      8.88511477e-06 1.47454106e-04 4.76084155e-04 7.95740460e-04
      1.61411148e-02 -4.32618475e-03 2.71484815e-02 1.87248997e-02
      -1.15550376e-01 -2.74184495e-01 2.34342903e-01 3.52694571e-01
      2.33933985e-01 -1.76031932e-01 3.59702915e-01 2.12121308e-01
      -2.56907340e-04 -9.56543430e-04 2.06166483e-03 4.11437359e-03
      4.66792434e-02 -1.69359650e-02 4.80168089e-02 1.72778573e-02
      -1.66074902e-01 2.78739601e-01 2.09022447e-01 2.96434283e-01
      2.61574715e-01 1.64951056e-01 3.18870962e-01 1.69000402e-01
      -4.23224084e-03 -1.82226498e-03 6.63563237e-03 4.26315097e-03
      1.13126021e-02 -6.16607536e-03 1.13139190e-02 6.16665138e-03
      1.34542556e-02 -8.14628601e-03 2.37515550e-02 1.13281347e-02
      1.02697033e-02 -1.34872599e-02 1.24921752e-02 1.47840194e-02
      -2.54914560e-03 -4.39121104e-05 2.79754493e-03 1.53186196e-03</_>
    <_>
      6.91763591e-04 1.82220698e-04 1.59951916e-03 7.38670002e-04
      -2.39274856e-02 1.12815280e-04 2.74532810e-02 1.44984694e-02
      1.89198721e-02 8.13891925e-03 2.77476329e-02 5.83156087e-02
      -1.04557804e-03 -1.59940770e-04 1.06828241e-03 7.13434361e-04
      4.85219993e-03 3.10279219e-03 1.28257237e-02 6.12030691e-03
      -1.21173233e-01 -1.98024452e-01 1.57721967e-01 2.35846639e-01
      1.05022393e-01 -6.47519603e-02 5.76413989e-01 1.28254130e-01
      -4.24580555e-03 3.72894085e-03 4.37577255e-03 6.19977294e-03
      4.50208958e-04 2.31098340e-04 7.65218399e-03 4.89870645e-03
      -1.86933890e-01 1.69640929e-01 2.29773238e-01 3.23462367e-01
      1.97686255e-01 6.69944733e-02 4.24762964e-01 1.92805380e-01
      -5.84984804e-03 -6.70612426e-05 1.08800074e-02 9.85688437e-03
      5.32943173e-04 -3.03576322e-04 1.78351952e-03 1.48654601e-03
      -2.33330354e-02 2.16930453e-02 3.51905786e-02 3.76567803e-02
      2.13125180e-02 7.21374853e-03 8.47569555e-02 3.46209705e-02
      -1.25742052e-03 9.17731202e-04 1.44327385e-03 1.41615653e-03</_>
    <_>
      3.83752561e-03 -2.07730639e-03 7.47435447e-03 3.50194261e-03
      6.81019295e-03 4.37335558e-02 4.08418812e-02 5.30666448e-02
      5.08113811e-03 3.34799755e-03 6.87544094e-03 1.10973539e-02
      -4.71741281e-04 -6.01236126e-04 4.30816691e-03 2.48238631e-03
      5.31356744e-02 -1.98780447e-02 6.05437569e-02 2.13229526e-02
      -2.54846454e-01 -2.23437011e-01 3.15674275e-01 2.63942063e-01
      2.19983384e-01 -1.66455522e-01 2.23831654e-01 2.05638438e-01
      1.81345362e-02 3.50983511e-03 1.83154121e-02 1.00822449e-02
      1.09579852e-02 -2.11192085e-03 2.49571148e-02 8.11844040e-03
      -1.13512143e-01 1.86855897e-01 4.37299222e-01 3.08516800e-01
      2.00023249e-01 1.71283737e-01 2.51688629e-01 2.35709444e-01
      1.18804174e-02 -3.34002450e-03 1.18804174e-02 1.35624940e-02
      3.24506382e-03 -1.80230476e-03 3.61131481e-03 2.56470125e-03
      3.35434414e-02 -6.27337024e-03 4.42056097e-02 1.63583737e-02
      -2.28420217e-02 -3.28205079e-02 4.20623198e-02 4.33632582e-02
      2.61439779e-03 -1.40236365e-03 2.61439779e-03 2.02749018e-03</_>
    <_>
      4.33628075e-03 -3.43878579e-04 4.35640942e-03 1.83895626e-03
      2.79604197e-02 1.58565212e-03 3.71604376e-02 1.16375890e-02
      -1.51837198e-02 2.88375337e-02 4.07929160e-02 4.23075929e-02
      1.13298697e-03 1.49084546e-03 1.27678982e-03 2.10503978e-03
      3.57574853e-03 9.97044728e-04 2.16113068e-02 1.21382689e-02
      -7.53357485e-02 -1.99879587e-01 3.66762549e-01 2.88692296e-01
      2.41056591e-01 -1.58917874e-01 2.49304190e-01 2.05147937e-01
      1.23989256e-02 7.12524820e-03 1.23989256e-02 1.33375442e-02
      5.39187752e-02 1.68515947e-02 6.47958517e-02 1.88629795e-02
      -1.93080097e-01 2.46718735e-01 2.65959710e-01 2.77702063e-01
      2.86147714e-01 2.15540886e-01 2.98293591e-01 2.47331887e-01
      1.18046030e-02 6.05734112e-03 1.42580345e-02 1.31577821e-02
      2.55499035e-03 1.10652356e-03 5.95200201e-03 2.14120559e-03
      2.72518545e-02 -4.14572172e-02 5.44644371e-02 4.71395999e-02
      9.18939617e-03 3.10890586e-03 1.35454936e-02 9.56220925e-03
      2.60147778e-03 1.76009105e-03 3.02170590e-03 2.02175067e-03</_>
    <_>
      2.18250835e-03 4.02004691e-04 2.70858244e-03 8.91149568e-04
      7.11450633e-03 -2.28083902e-03 2.60133725e-02 1.65911559e-02
      3.28292549e-02 3.79998796e-02 4.91996668e-02 4.49497551e-02
      1.56057207e-03 7.44952587e-04 1.56057207e-03 1.09343138e-03
      5.22594526e-02 9.87173710e-03 5.31348288e-02 1.22378357e-02
      -9.10562798e-02 -1.69270813e-01 1.76455632e-01 1.91811562e-01
      3.90625298e-01 -1.37243032e-01 3.90625298e-01 1.79266632e-01
      1.26524810e-02 2.16455688e-03 1.29094040e-02 8.96000583e-03
      4.22011502e-02 9.73005407e-03 5.00844605e-02 1.27156014e-02
      -1.11427657e-01 1.79778740e-01 1.94489688e-01 2.08563641e-01
      3.99207711e-01 1.76393598e-01 3.99207711e-01 1.93854958e-01
      1.04053831e-02 6.15354802e-04 1.06290104e-02 7.42834620e-03
      2.45206361e-03 1.17579952e-03 5.91681292e-03 1.95879187e-03
      2.09142100e-02 -3.00869271e-02 4.53965180e-02 3.40460539e-02
      2.96484977e-02 -4.47673257e-03 2.96484977e-02 8.17105640e-03
      1.68243132e-03 -8.92476179e-04 1.89437252e-03 1.66667276e-03</_>
    <_>
      1.72178831e-03 3.01607186e-03 4.10244102e-03 3.78863700e-03
      1.33526023e-03 5.12098381e-03 5.00417547e-03 7.46639306e-03
      -1.51463842e-03 -9.70902620e-04 2.93879467e-03 3.86852003e-03
      1.21027901e-04 8.18889166e-05 4.83798824e-04 2.54268089e-04
      -6.98198623e-04 4.74144326e-04 3.83875147e-03 2.90383864e-03
      -2.18166575e-01 -2.76895165e-01 2.19514757e-01 2.77956724e-01
      1.95812315e-01 -1.98262975e-01 2.63369143e-01 2.10606202e-01
      9.04186221e-04 3.21501808e-04 1.96003658e-03 2.15045246e-03
      -8.20627529e-03 -4.87414096e-03 1.27871372e-02 1.15439538e-02
      -2.89163351e-01 4.65472154e-02 3.00055772e-01 2.34740868e-01
      3.91019732e-01 4.29450050e-02 3.94599736e-01 8.09551179e-02
      2.72835750e-04 -9.17007797e-04 2.75852042e-03 2.96566077e-03
      4.38802781e-05 -1.71953859e-03 6.10117195e-03 3.34854075e-03
      -3.16959582e-02 3.26559246e-02 4.06864621e-02 3.64120007e-02
      2.82844510e-02 2.12035030e-02 5.44316545e-02 3.25585455e-02
      3.22767941e-04 5.21560782e-04 3.53722164e-04 5.41571644e-04</_>
    <_>
      3.89218843e-03 -1.27442501e-04 5.57516236e-03 2.77815294e-03
      -1.66094322e-02 3.52439005e-03 2.13361513e-02 3.30343358e-02
      7.21348030e-03 7.61403190e-03 4.55136932e-02 4.85401228e-02
      -1.70651742e-03 5.49200224e-04 1.87856052e-03 2.30367435e-03
      1.68299619e-02 -1.69509032e-03 2.37867236e-02 2.34728344e-02
      -1.66833252e-01 -3.05119604e-01 1.96377724e-01 3.28083247e-01
      1.31317869e-01 -5.08778654e-02 3.39446187e-01 3.44245225e-01
      -4.51524137e-03 -4.12998954e-03 9.10167582e-03 6.92723272e-03
      1.01369871e-02 -6.92005444e-04 1.13700032e-02 1.02936123e-02
      -1.62816927e-01 1.92865819e-01 2.22110331e-01 3.42465430e-01
      1.59522742e-01 -1.68696288e-02 4.27386463e-01 1.49676710e-01
      -2.27666162e-02 -1.09562725e-02 2.97226943e-02 3.86780612e-02
      8.00816168e-04 -4.54943307e-04 1.39816129e-03 1.37852435e-03
      -2.96023879e-02 -1.02094291e-02 4.20619249e-02 2.51732450e-02
      3.24662961e-02 1.88195184e-02 3.64772975e-02 2.54730638e-02
      -2.68913922e-03 -2.69612740e-03 3.77846207e-03 4.17329930e-03</_>
    <_>
      4.88433102e-03 5.39489614e-04 7.13128503e-03 5.44166099e-03
      -4.54506055e-02 -1.50111672e-02 4.60530333e-02 3.25900763e-02
      4.93335985e-02 5.78490272e-03 5.42264208e-02 3.66607234e-02
      -6.19134807e-04 4.24657366e-04 1.42831169e-03 1.10311422e-03
      4.12144884e-02 -1.67604033e-02 6.85274452e-02 2.51016654e-02
      -1.42404079e-01 -1.43686309e-01 2.84863919e-01 2.46438205e-01
      1.83283091e-01 -4.55487333e-02 5.70290983e-01 2.34917253e-01
      -5.82770072e-03 -1.05590569e-02 6.49972400e-03 1.34636471e-02
      3.62563953e-02 1.33913662e-02 5.01895472e-02 2.03749072e-02
      -1.90142587e-01 1.77469745e-01 2.07349464e-01 2.01911598e-01
      2.20588684e-01 6.96555898e-02 3.72174323e-01 1.74884290e-01
      -8.79628491e-03 -2.77149118e-03 1.09828534e-02 4.67099482e-03
      5.33182593e-03 -2.48660287e-03 6.59244740e-03 5.03508095e-03
      -5.76120801e-03 -2.09365375e-02 1.84526313e-02 2.71932557e-02
      1.45288585e-02 3.11316364e-03 2.15663631e-02 9.01158247e-03
      -9.86236380e-04 3.23991670e-04 1.14791514e-03 7.75073830e-04</_>
    <_>
      1.26879284e-04 -1.63008619e-04 1.76418026e-03 7.54400389e-04
      -1.75782610e-02 1.08798435e-02 2.26955712e-02 1.91693697e-02
      8.01781099e-03 2.63598654e-02 6.07074760e-02 4.61890884e-02
      -1.51986489e-04 -4.54197463e-04 2.99095002e-04 6.83495891e-04
      8.18664499e-04 3.22964694e-03 4.38811770e-03 5.94312791e-03
      -1.09939910e-01 -1.86653554e-01 3.17900300e-01 2.13586748e-01
      9.06349048e-02 -1.68329969e-01 3.05149376e-01 2.27111489e-01
      1.01173518e-03 8.69836949e-04 5.62440092e-03 4.26164409e-03
      1.51161081e-03 -2.02205544e-03 3.29829287e-03 3.69106117e-03
      -2.19528273e-01 1.77472368e-01 4.44191664e-01 2.74756104e-01
      2.28338405e-01 1.58950105e-01 3.60089660e-01 2.27951035e-01
      -1.98810617e-03 -3.82323354e-03 5.45797730e-03 4.20187088e-03
      -1.78265982e-04 4.22724261e-05 5.18280256e-04 3.62816616e-04
      5.93028916e-03 -3.24326232e-02 3.77899110e-02 3.72267663e-02
      -2.93353666e-03 -1.43315932e-02 3.25054340e-02 1.87844336e-02
      -1.37429597e-04 4.08659660e-04 6.34151569e-04 5.79176471e-04</_>
    <_>
      -5.82036409e-05 1.12633847e-04 7.68085010e-04 4.94631997e-04
      1.07811438e-03 -6.66870037e-03 7.68809160e-03 9.15711001e-03
      8.10425542e-03 -1.41055146e-02 1.41438544e-02 1.59159526e-02
      1.30791462e-03 -1.03931518e-04 1.33502984e-03 8.48067051e-04
      -5.26743097e-05 -2.98010092e-03 5.14781149e-03 6.16146810e-03
      -6.27774000e-02 -2.25020513e-01 1.95972905e-01 2.42810637e-01
      1.91011965e-01 -9.59546864e-02 2.36783341e-01 1.84795335e-01
      1.80570455e-03 -1.81868859e-03 6.16904953e-03 6.30615978e-03
      -5.08707855e-03 -2.39102496e-03 8.46062135e-03 6.07567281e-03
      -1.35208577e-01 4.03449163e-02 3.70333850e-01 4.99208659e-01
      3.24090153e-01 6.41732365e-02 3.91068906e-01 1.76884055e-01
      1.65152957e-03 -2.82989093e-03 5.65014547e-03 5.39644482e-03
      -2.51442101e-03 -1.13996537e-03 3.18081188e-03 1.61391322e-03
      2.53168549e-02 2.34075380e-03 8.24756473e-02 5.35623357e-02
      1.31194778e-02 1.21642575e-02 1.50694838e-02 1.85611099e-02
      5.62818488e-04 -2.97756924e-04 1.05376344e-03 6.62779436e-04</_>
    <_>
      3.60875600e-03 9.18396842e-03 5.28904097e-03 1.39522953e-02
      1.22894114e-02 2.10177731e-02 2.70389896e-02 3.25027741e-02
      1.97053468e-03 3.25104371e-02 1.46797169e-02 4.05465625e-02
      3.90927569e-04 3.98700079e-03 1.90484175e-03 4.02160548e-03
      1.37066271e-03 -2.12124698e-02 1.31743401e-02 2.37086508e-02
      -1.64336438e-04 -2.83124357e-01 2.05972180e-01 2.87181407e-01
      1.31852627e-01 -1.50024325e-01 1.78443089e-01 1.62262201e-01
      -2.48090178e-02 -2.50515770e-02 3.21924910e-02 3.19538452e-02
      6.49960525e-03 1.93390972e-03 5.07887490e-02 6.30476996e-02
      -1.08572178e-01 1.13167472e-01 5.13212800e-01 3.35930854e-01
      3.50599706e-01 6.61756992e-02 3.61210734e-01 1.18729033e-01
      -6.62787911e-03 2.34805401e-02 2.43011415e-02 3.06122210e-02
      -4.97367792e-03 3.07100890e-05 5.28787263e-03 1.16739527e-03
      8.05444270e-03 -4.78002988e-03 5.60251065e-02 3.32115293e-02
      1.60654299e-02 2.94020312e-04 1.89288277e-02 1.75166130e-02
      6.79192599e-04 -9.03070613e-04 8.44592170e-04 1.34151371e-03</_>
    <_>
      -1.46082339e-05 1.24783692e-04 1.16291037e-03 6.03629393e-04
      1.64225057e-03 -2.51915166e-03 3.47944046e-03 7.88705423e-03
      2.57961568e-03 3.27128335e-03 3.71409114e-03 5.75114973e-03
      5.20956855e-05 5.37054912e-05 5.49899647e-04 3.88722867e-04
      7.89240061e-04 -1.82296702e-04 6.14664610e-03 4.32987697e-03
      -2.24640042e-01 -2.55599052e-01 3.37419033e-01 3.47595125e-01
      2.81438053e-01 -9.70503315e-02 3.15787166e-01 1.86745718e-01
      -2.10668426e-04 2.96672748e-04 5.83397364e-03 1.01717180e-02
      -2.86265189e-04 -2.05405336e-03 5.23638166e-03 1.02735860e-02
      -1.56471744e-01 2.55734563e-01 2.29127795e-01 3.68864983e-01
      2.09360644e-01 1.00992993e-01 2.23859608e-01 2.07293093e-01
      1.93808693e-03 -4.21806658e-03 6.34154631e-03 9.36876331e-03
      6.05628185e-04 -2.45920761e-04 6.90578134e-04 9.19442507e-04
      1.60195422e-03 -2.75246613e-03 3.06646922e-03 6.48582773e-03
      3.64205363e-04 1.89278682e-03 5.41790389e-03 4.67990013e-03
      2.44220864e-04 -1.71477761e-04 8.69599928e-04 5.34599996e-04</_>
    <_>
      2.63956492e-04 -7.04823411e-04 3.85621533e-04 9.61637124e-04
      -1.02192629e-02 -1.20521160e-02 2.13832650e-02 1.51691698e-02
      1.66143104e-02 -3.48766311e-03 1.67178176e-02 9.52992309e-03
      -7.32904952e-03 2.46480014e-03 7.89872184e-03 4.77594836e-03
      6.98621338e-03 -1.17807183e-02 7.74427876e-03 1.41244205e-02
      -1.82804540e-01 -2.94647664e-01 2.75439888e-01 3.77058864e-01
      2.73393303e-01 -1.35350332e-01 3.12753677e-01 2.88133562e-01
      -6.10922929e-03 2.56747939e-03 2.14389544e-02 1.13439811e-02
      4.76763584e-03 1.10524856e-02 8.92319623e-03 1.13641191e-02
      -1.40027463e-01 2.07717285e-01 1.99842677e-01 2.56226689e-01
      2.89488584e-01 9.14606377e-02 2.92930573e-01 1.92760020e-01
      -2.01486796e-03 -1.47983810e-04 5.09838481e-03 8.41623545e-03
      3.50047019e-04 -5.73481608e-04 1.48399954e-03 1.20888255e-03
      -5.12226764e-03 -1.60340196e-03 1.32263536e-02 7.11438525e-03
      1.81876216e-02 6.93994667e-03 1.93149932e-02 7.38959387e-03
      -1.51751318e-03 -3.61108483e-04 1.57194003e-03 1.57302269e-03</_>
    <_>
      9.90875717e-03 -1.41098658e-02 1.15922876e-02 1.75625533e-02
      5.35266148e-03 2.29575089e-03 1.05126724e-02 6.68684579e-03
      -2.69134576e-03 1.11216791e-02 1.92186628e-02 1.20079555e-02
      3.92957637e-03 1.22624857e-03 8.46714899e-03 2.88005732e-03
      1.50531614e-02 5.83411269e-02 3.98965590e-02 5.86097799e-02
      -2.00209051e-01 -2.07116559e-01 2.93401748e-01 2.64140218e-01
      2.81931370e-01 -1.93922147e-01 2.89025784e-01 2.24220812e-01
      3.91287496e-03 6.92679081e-03 1.71562787e-02 9.30376723e-03
      2.73808977e-03 -3.07699968e-03 1.03939772e-02 7.49165751e-03
      -2.31349289e-01 2.41830379e-01 2.45464936e-01 2.43982345e-01
      2.18559042e-01 1.91061333e-01 3.35439086e-01 2.50293344e-01
      -1.68173842e-03 -4.52455841e-02 3.83864045e-02 5.43934554e-02
      4.25388617e-03 -4.58077993e-03 5.27869305e-03 4.85067209e-03
      8.21326394e-03 -7.87143130e-03 1.10005867e-02 1.29732592e-02
      -1.37671297e-02 1.16922269e-02 1.81233622e-02 1.34201562e-02
      2.42816773e-03 1.05627039e-02 5.37121249e-03 1.06488429e-02</_>
    <_>
      5.06412191e-03 -1.50802601e-02 7.68472906e-03 1.51089700e-02
      1.24891670e-02 4.94364230e-03 1.29039278e-02 6.96423557e-03
      -1.90353487e-03 6.65419037e-03 6.07513497e-03 7.37870252e-03
      4.61366581e-04 8.63616937e-04 8.07133620e-04 1.20422617e-03
      3.15056592e-02 4.95687500e-02 5.16649969e-02 5.05423807e-02
      -1.56661153e-01 -2.38101646e-01 2.89838880e-01 2.82312840e-01
      2.87553936e-01 -2.37011269e-01 2.98139751e-01 2.82768160e-01
      -2.63201469e-03 8.90117080e-04 5.65848872e-03 4.61155968e-03
      5.45941293e-03 2.76609883e-03 6.09006407e-03 7.95565639e-03
      -1.94647685e-01 2.14644909e-01 2.35498637e-01 2.29413107e-01
      2.26850227e-01 1.86453953e-01 3.08042198e-01 2.36046150e-01
      -1.51833249e-02 -4.75537330e-02 4.36011180e-02 5.15925065e-02
      3.90974246e-03 -5.48782013e-03 4.72144736e-03 5.61459130e-03
      1.03983767e-02 -6.66616997e-03 1.32757686e-02 1.38320699e-02
      -1.03785060e-02 5.91130555e-03 1.76454596e-02 1.17888916e-02
      -6.52142917e-04 1.04288450e-02 5.51480567e-03 1.04809562e-02</_>
    <_>
      -8.73680227e-03 3.44094951e-05 8.92299507e-03 5.73700061e-03
      5.35784811e-02 1.23193208e-02 5.90984337e-02 4.31040190e-02
      -3.99823161e-03 7.10997672e-04 7.26385880e-03 9.36864875e-03
      -7.58233538e-04 2.78964435e-04 1.11801096e-03 1.33079744e-03
      -2.88075977e-03 1.34465015e-02 1.04040671e-02 2.11575832e-02
      -1.75654829e-01 -2.00821623e-01 2.34250918e-01 3.13871145e-01
      2.43542045e-01 -2.40391567e-01 2.89603949e-01 2.68535644e-01
      -4.81709791e-03 8.70206580e-03 6.76992722e-03 1.33380704e-02
      1.87305585e-02 -8.67629983e-03 1.88312307e-02 1.59267448e-02
      -2.00606048e-01 2.53679276e-01 2.13082403e-01 2.56024629e-01
      2.33137906e-01 1.81693882e-01 2.83607215e-01 3.15510303e-01
      -4.79478342e-03 -1.06002027e-02 2.00028475e-02 1.52138146e-02
      7.14793243e-03 -3.59779946e-03 7.60512799e-03 5.02072461e-03
      7.18401046e-03 -2.34591309e-03 1.13271791e-02 9.13477037e-03
      -5.19575328e-02 -6.14735065e-03 5.24655916e-02 3.63293737e-02
      1.60035547e-02 -2.69890437e-03 1.63192563e-02 1.01642394e-02</_>
    <_>
      4.68810461e-03 -1.50808529e-03 9.65020433e-03 8.69121216e-03
      5.71790710e-03 -2.27282639e-03 1.52329952e-02 1.60689615e-02
      -1.60698742e-02 -1.29172094e-02 3.22488323e-02 1.77710894e-02
      -2.58162315e-03 7.06752110e-03 1.20133068e-02 1.02182301e-02
      6.21420471e-03 1.03175947e-02 1.63291767e-02 1.72802117e-02
      -1.31289527e-01 -1.86230347e-01 1.91332370e-01 2.38587081e-01
      8.91337916e-02 -3.02209146e-02 3.34874064e-01 2.75194049e-01
      1.46624697e-02 1.64171085e-02 2.32507382e-02 2.63119880e-02
      -4.04578587e-03 3.97757860e-03 7.65527133e-03 6.80494215e-03
      -1.28218889e-01 2.10916474e-01 2.26376131e-01 2.66576409e-01
      1.23215348e-01 9.96481553e-02 5.98892033e-01 2.87560225e-01
      2.16882750e-02 -1.42870285e-03 2.65827440e-02 2.73785088e-02
      4.62142425e-03 -5.39653888e-03 1.02070682e-02 1.18642384e-02
      7.64557114e-03 5.28312009e-03 1.13643426e-02 7.91272428e-03
      -8.97370628e-04 1.43722910e-03 7.65719404e-03 8.13874416e-03
      -3.74775846e-03 -2.89213867e-03 7.40046380e-03 5.50884474e-03</_>
    <_>
      -6.33456977e-03 4.17835684e-03 6.77808700e-03 7.66206067e-03
      3.10805310e-02 1.75381191e-02 3.19427513e-02 2.92151887e-02
      -9.11123119e-03 6.37251092e-03 1.49982814e-02 1.65349226e-02
      9.70209250e-04 -1.78406015e-04 2.28083762e-03 1.03974668e-03
      -4.19776933e-03 2.93110940e-03 6.23437949e-03 1.38804447e-02
      -2.19373360e-01 -2.56677717e-01 2.37182587e-01 2.78853357e-01
      2.71713823e-01 -1.90851212e-01 2.95731604e-01 2.24530324e-01
      -3.06394305e-02 1.60904266e-02 3.95665318e-02 2.69182622e-02
      3.12187639e-03 -5.25061367e-03 5.81934536e-03 9.74398758e-03
      -2.14055434e-01 2.25030035e-01 2.42165819e-01 2.64655232e-01
      2.79874057e-01 1.60240635e-01 3.15674245e-01 2.51465082e-01
      2.67140125e-03 -1.91756636e-02 9.23302490e-03 2.55688839e-02
      1.31442340e-03 -2.16938579e-03 1.32566888e-03 2.24429579e-03
      4.08323947e-03 -3.18138115e-03 5.18069789e-03 7.90741947e-03
      -2.91648936e-02 -1.47211293e-04 3.48492861e-02 2.17067003e-02
      8.69718008e-03 3.81622440e-03 8.72630533e-03 4.54174122e-03</_>
    <_>
      1.56446057e-03 -6.04611496e-03 3.18594160e-03 6.54613506e-03
      -3.44093703e-03 1.93743221e-03 8.18833616e-03 1.44180777e-02
      -6.17950223e-03 1.52055295e-02 7.66777806e-03 1.85139384e-02
      2.84669892e-04 -2.00953847e-03 8.20004498e-04 3.58968182e-03
      4.80847731e-02 2.82209516e-02 6.55640662e-02 5.22665344e-02
      -2.35587656e-01 -2.47382492e-01 2.62719899e-01 2.56378680e-01
      2.75135577e-01 -2.06715018e-01 2.95682311e-01 2.14762464e-01
      -1.23729892e-02 8.02264921e-03 1.31812589e-02 2.06567384e-02
      1.59617979e-04 1.29811070e-03 5.33173978e-03 1.71393657e-03
      -2.19647080e-01 2.58883536e-01 2.44110525e-01 2.67608225e-01
      2.27532685e-01 2.13327467e-01 2.58808315e-01 2.31970564e-01
      -6.84496835e-02 -3.51133682e-02 9.16074663e-02 7.44681284e-02
      6.88724976e-04 -1.73561377e-04 7.19388539e-04 4.03548707e-04
      3.81047576e-05 -2.54041061e-05 3.88696627e-03 1.85496313e-03
      -8.03244766e-04 -2.54201703e-04 5.54017257e-03 4.45186906e-03
      -2.02058698e-03 3.62206553e-03 2.55442085e-03 3.73582332e-03</_>
    <_>
      6.98943622e-04 5.29276673e-04 1.63290428e-03 1.06764107e-03
      -1.39951051e-04 6.60333270e-03 7.83798564e-03 8.55240226e-03
      -4.02388209e-03 5.77326445e-03 6.16691820e-03 8.57903436e-03
      6.08912145e-04 1.75384362e-03 1.45786733e-03 2.37674429e-03
      -1.27726272e-02 5.08675957e-03 4.10580821e-02 7.94188902e-02
      -1.40274633e-02 -3.37747663e-01 1.95686877e-01 3.57252687e-01
      1.16524264e-01 -1.49672538e-01 1.51707396e-01 1.74720824e-01
      1.53667433e-02 8.51807650e-03 1.90270096e-02 9.00908653e-03
      1.32777568e-04 6.07417990e-03 6.65731495e-03 1.06468499e-02
      -1.68072090e-01 1.99494258e-01 2.66583115e-01 5.41526377e-01
      2.34276548e-01 6.34669960e-02 2.80569643e-01 2.05411747e-01
      2.37663426e-02 1.07617804e-03 3.56765948e-02 1.21789500e-02
      -8.16754997e-04 1.01853558e-03 1.16956572e-03 1.01853558e-03
      -2.11280510e-02 1.24963457e-02 2.28647701e-02 5.08062020e-02
      2.31733192e-02 1.50905978e-02 2.51195878e-02 3.81958298e-02
      2.39179167e-03 -2.91042379e-04 6.70161285e-03 2.67650443e-03</_>
    <_>
      -5.78969426e-04 4.53433371e-04 1.67904096e-03 1.80036668e-03
      2.46327836e-03 6.22165017e-03 9.16501042e-03 6.40774099e-03
      -6.09942712e-03 -7.06737489e-03 9.90087073e-03 1.23364693e-02
      -1.61921605e-03 1.89201697e-03 2.80509098e-03 3.65969981e-03
      -3.41399107e-03 -2.94504710e-03 7.09470548e-03 9.27336607e-03
      -2.57822484e-01 -2.06774577e-01 2.79536098e-01 2.32005432e-01
      2.40096673e-01 -1.04385689e-01 2.90786922e-01 1.72787577e-01
      2.07642489e-03 1.30017102e-03 5.62415039e-03 8.03636108e-03
      -5.34640998e-03 -1.70525704e-02 2.20619496e-02 4.53019254e-02
      -1.85260877e-01 1.39954612e-01 3.53363961e-01 3.82935315e-01
      2.66465992e-01 1.32510200e-01 3.18337530e-01 2.37097263e-01
      1.05039438e-03 -1.46362837e-03 4.61656181e-03 7.81487115e-03
      5.72938379e-03 3.50712240e-03 8.34628660e-03 5.25084324e-03
      -3.18788947e-03 4.48304974e-03 8.96746013e-03 1.01229399e-02
      -4.34636744e-03 4.03806707e-03 8.72023124e-03 1.01604024e-02
      -7.19583011e-04 -7.83810217e-04 1.18463626e-03 1.19814451e-03</_>
    <_>
      6.26271474e-04 -5.24261734e-04 1.15344278e-03 1.01583754e-03
      -3.52633791e-03 -1.47607503e-02 6.88990159e-03 1.56157427e-02
      -3.95552721e-03 -2.76674274e-02 2.67229881e-02 3.37734669e-02
      -9.14658594e-04 2.07352336e-03 2.00110953e-03 3.72012029e-03
      -3.87005531e-03 -1.21535165e-02 2.62313858e-02 7.84172192e-02
      -5.89639023e-02 -2.39361271e-01 2.91935652e-01 3.02792430e-01
      2.07570046e-01 -8.75466615e-02 4.39648598e-01 1.41471893e-01
      -2.24203046e-04 -1.97925256e-03 3.90756642e-03 5.19580767e-03
      9.04275291e-03 1.58282537e-02 4.89169098e-02 2.28745881e-02
      -9.51207727e-02 2.68900961e-01 3.48930657e-01 3.07954669e-01
      2.06209242e-01 1.81145057e-01 2.50170618e-01 2.20781982e-01
      1.09282159e-03 -2.28452520e-03 3.90472612e-03 6.20178506e-03
      -5.05713164e-04 2.63831986e-04 8.44506314e-04 7.93737010e-04
      1.44457817e-03 -1.67826202e-03 3.45976325e-03 5.40631497e-03
      3.00503895e-03 -1.36312985e-04 5.84340980e-03 4.73528355e-03
      -4.26241895e-04 -5.09995210e-04 6.96183939e-04 1.41327910e-03</_>
    <_>
      2.48033111e-03 -2.70138728e-04 2.75840657e-03 2.15709442e-03
      4.30630147e-03 -1.36376508e-02 1.30155543e-02 1.68131888e-02
      1.73440413e-03 4.76136617e-03 4.79725515e-03 5.28154662e-03
      -7.02749530e-04 1.05354097e-03 8.05937161e-04 1.21523207e-03
      -2.41262745e-02 8.94979015e-03 3.19788270e-02 7.63089359e-02
      1.06298260e-03 -3.18914920e-01 3.20357531e-01 4.27213132e-01
      2.17570409e-01 -4.81684804e-02 2.24816188e-01 2.04822823e-01
      -4.29912191e-03 -2.95262458e-03 1.07305693e-02 5.60633931e-03
      -7.07226479e-03 1.63667053e-02 8.27419572e-03 1.68890338e-02
      -1.05009966e-01 3.98171812e-01 2.06546843e-01 4.00646716e-01
      1.65183857e-01 5.12433983e-02 1.86616972e-01 1.53331980e-01
      -8.69961362e-03 -4.84212011e-04 1.44370627e-02 2.21535265e-02
      1.74076471e-04 -1.47993315e-03 1.21580495e-03 1.75982236e-03
      1.32323871e-03 2.05200762e-04 7.35146692e-03 3.23122274e-03
      3.61605128e-03 2.19175452e-03 4.34559351e-03 2.33076699e-03
      -2.47936288e-04 1.30724628e-03 8.33125610e-04 1.83657533e-03</_>
    <_>
      -6.29653659e-05 8.25020135e-04 3.51915893e-04 9.27571964e-04
      1.58667739e-03 1.16620015e-03 8.70096590e-03 4.08449583e-03
      -1.11403759e-03 5.61376277e-04 3.36843543e-03 2.68163253e-03
      -4.68229671e-04 -1.89298094e-04 9.25156754e-04 3.77973629e-04
      2.34096916e-03 -6.23557891e-04 2.78136879e-03 4.05337056e-03
      -1.09598815e-01 -1.66432291e-01 3.40170979e-01 4.07360703e-01
      1.88336909e-01 -1.13578133e-01 2.11630553e-01 1.21165700e-01
      -1.08466763e-02 -2.34392402e-03 1.20372307e-02 7.56631279e-03
      2.43159200e-04 2.53521791e-03 2.74114474e-03 3.21667967e-03
      -2.77149975e-01 1.43933162e-01 4.25875992e-01 3.22820187e-01
      2.76433527e-01 4.37838659e-02 2.98865557e-01 8.27464834e-02
      -9.65924282e-03 1.58107665e-03 1.51245324e-02 8.25788174e-03
      2.07253997e-05 4.31862165e-04 3.93025141e-04 4.93180589e-04
      -3.38366628e-02 -7.98006728e-03 7.89529309e-02 3.38985957e-02
      3.80905196e-02 -1.26908347e-03 3.90115939e-02 2.65950151e-02
      -2.13367702e-03 7.70439452e-04 2.50979164e-03 1.01854966e-03</_>
    <_>
      3.92206665e-03 1.20336877e-03 3.92206665e-03 1.35614339e-03
      3.32532302e-02 1.27752929e-03 3.32532302e-02 4.94165253e-03
      9.61214490e-03 -3.76497395e-03 1.05945421e-02 4.14822204e-03
      1.67400547e-04 2.84647649e-05 9.14408476e-04 6.20015489e-04
      8.70167911e-02 7.62931444e-03 8.70167911e-02 8.66886973e-03
      -1.20761998e-01 -2.10681081e-01 2.98682123e-01 2.43470997e-01
      2.75439471e-01 -2.60548204e-01 2.78247356e-01 2.60548204e-01
      6.04591705e-03 -4.51740343e-03 7.07003241e-03 4.53266921e-03
      1.12384886e-01 1.00424858e-02 1.12415411e-01 1.07134264e-02
      -2.17273071e-01 1.98139429e-01 2.64136970e-01 2.16971949e-01
      2.67995507e-01 2.12053493e-01 2.70916462e-01 2.19038978e-01
      2.34554578e-02 -4.76342905e-03 2.49258522e-02 5.06184762e-03
      6.85729505e-03 -6.36420352e-03 6.90304535e-03 6.42191386e-03
      1.63794123e-02 -7.19185024e-02 1.66035164e-02 7.19185024e-02
      8.68869945e-03 -5.51123209e-02 9.16860439e-03 5.51123209e-02
      4.41490207e-03 -4.93658567e-03 4.83933557e-03 4.94928984e-03</_>
    <_>
      4.15007933e-04 -9.42022132e-04 1.47278700e-03 1.31986628e-03
      2.61210334e-05 -2.58098077e-03 4.41878429e-03 5.50902961e-03
      9.50393314e-06 1.33449235e-03 5.75004425e-03 7.89325871e-03
      -1.81157156e-04 -2.64593604e-04 6.08153467e-04 9.84216691e-04
      -1.57505844e-03 1.18466383e-02 3.17704119e-02 6.25849888e-02
      -2.69233473e-02 -2.79739261e-01 3.15184951e-01 4.20258045e-01
      1.68551311e-01 -4.94186878e-02 2.17709869e-01 2.67749310e-01
      -3.45680793e-03 -1.27217252e-04 6.82472391e-03 4.60412353e-03
      -1.76261214e-03 -1.73678191e-03 3.36372247e-03 4.44485759e-03
      -1.40942872e-01 3.21450233e-01 2.03262568e-01 3.51168841e-01
      1.58355474e-01 2.65658330e-02 2.67270714e-01 3.23327154e-01
      2.21020612e-03 -3.44466767e-03 4.99669928e-03 6.76942291e-03
      1.79477192e-05 1.74969202e-04 4.81806288e-04 7.11973873e-04
      4.78268834e-03 1.58941170e-04 6.66295923e-03 3.59948887e-03
      -1.79175485e-03 3.75420059e-05 3.21648316e-03 2.18812563e-03
      -3.24300054e-04 8.48642259e-04 7.70746672e-04 1.61131495e-03</_>
    <_>
      1.16359314e-03 -1.24429236e-03 2.68571591e-03 3.17846658e-03
      1.36810075e-03 -7.67990015e-03 5.30112535e-03 8.06724187e-03
      1.84566714e-03 1.34834438e-03 7.33941887e-03 7.11181201e-03
      4.03761951e-04 2.24126794e-04 1.24646944e-03 1.73534267e-03
      -1.90161411e-02 -2.61369031e-02 6.01641461e-02 4.74290438e-02
      1.78494137e-02 -2.66019553e-01 2.60267079e-01 4.33538914e-01
      1.84853896e-01 -1.47274241e-01 1.96518973e-01 1.52061403e-01
      4.06532269e-03 -2.71411799e-03 6.62175240e-03 5.74762188e-03
      -3.13166715e-02 3.72398086e-02 3.47596034e-02 3.90301496e-02
      -6.17123283e-02 2.77988315e-01 4.00882453e-01 3.67017508e-01
      1.77337959e-01 7.72267357e-02 2.22891808e-01 2.79891789e-01
      6.03248738e-03 -3.16827535e-03 7.17049278e-03 4.51457454e-03
      1.15978287e-03 -1.51522469e-03 2.87130242e-03 3.62767838e-03
      -5.32007776e-03 -1.24299126e-02 1.36163682e-02 2.29971651e-02
      2.44386378e-03 -5.67592401e-03 9.56952106e-03 1.04377000e-02
      -7.60426221e-04 -9.10444709e-04 1.54582039e-03 2.04291451e-03</_>
    <_>
      2.71405070e-03 2.12674192e-03 6.10051723e-03 4.10428224e-03
      -1.07697165e-02 9.29510128e-03 1.63949933e-02 1.34241637e-02
      9.49161500e-03 1.40771279e-02 2.39599850e-02 1.74647365e-02
      -1.61813150e-04 4.17421368e-04 8.65809736e-04 6.91140769e-04
      1.78371053e-02 -1.42281933e-03 2.36552171e-02 1.53628904e-02
      -4.15721126e-02 -1.56507432e-01 1.06561430e-01 1.76849425e-01
      4.52063344e-02 -1.41017616e-01 5.32489240e-01 1.84047788e-01
      -7.57024949e-03 4.53279121e-03 8.08473397e-03 8.03085137e-03
      1.33679500e-02 5.56980819e-03 2.30943896e-02 1.28725786e-02
      -1.84408531e-01 7.86032081e-02 1.94019899e-01 2.76638836e-01
      1.96590036e-01 1.11490510e-01 5.94446182e-01 1.49405494e-01
      -1.24751555e-03 -5.22581067e-05 4.88663279e-03 6.99842488e-03
      2.51422112e-04 4.06270643e-04 3.91191058e-03 2.19142972e-03
      -2.80759800e-02 4.67299437e-03 4.01889533e-02 2.81815995e-02
      3.19780074e-02 -7.40686082e-05 3.92763168e-02 2.59345770e-02
      -1.65556936e-04 -1.20836764e-03 7.04132195e-04 1.42042025e-03</_>
    <_>
      -4.87808022e-04 1.40872653e-04 7.11131317e-04 8.05386400e-04
      1.63680711e-03 5.52121922e-03 5.11543499e-03 1.24300849e-02
      2.75944499e-03 -3.74613941e-04 2.06538998e-02 9.19088535e-03
      1.05428777e-03 1.58850732e-03 3.13472818e-03 2.35907012e-03
      1.12183497e-03 2.45296629e-03 9.39392950e-03 8.33264086e-03
      -6.29830584e-02 -2.30435178e-01 1.95120171e-01 2.80844122e-01
      1.24040477e-01 -1.97340503e-01 2.58621037e-01 2.59945780e-01
      -8.51464830e-03 5.44741470e-03 3.88541184e-02 2.49976777e-02
      6.17537065e-04 -5.17440261e-04 8.01044982e-03 5.53050637e-03
      -1.97457522e-01 2.05363587e-01 3.45284671e-01 2.47097358e-01
      2.65257865e-01 1.86681539e-01 4.32859838e-01 2.41194740e-01
      7.26813357e-03 -4.84522758e-03 1.68939382e-02 3.35284993e-02
      1.19203608e-03 1.00488996e-03 2.13325676e-03 1.11127377e-03
      -1.18945781e-02 -5.64801097e-02 5.09943403e-02 9.26357657e-02
      2.55877748e-02 -3.50149348e-02 3.47228572e-02 4.91032004e-02
      -4.87693958e-03 -5.67013258e-03 1.06763104e-02 8.94083641e-03</_>
    <_>
      4.03329777e-03 3.02881794e-03 6.13363553e-03 4.75387881e-03
      -3.34542035e-03 -1.67960732e-03 1.35134561e-02 1.16233202e-02
      -1.98438540e-02 4.45112847e-02 5.91608025e-02 1.03273176e-01
      3.35301436e-03 1.90210773e-03 3.42887873e-03 2.90504191e-03
      1.09850839e-02 3.40113346e-03 1.53594827e-02 1.09344041e-02
      -1.80966213e-01 -1.56220183e-01 3.07960808e-01 3.27791363e-01
      1.68000489e-01 -1.34408891e-01 4.39262539e-01 1.76251650e-01
      3.90692567e-03 2.74610519e-03 6.28610048e-03 7.53842434e-03
      1.95284712e-03 8.94932542e-04 1.00824796e-02 8.20182078e-03
      -1.60468742e-01 7.99709186e-02 2.04312593e-01 3.30501258e-01
      1.44178346e-01 7.99556896e-02 4.65741962e-01 1.26103774e-01
      -3.60236224e-03 -5.74055221e-03 6.01556199e-03 7.31362123e-03
      -3.32949508e-04 -7.09611829e-03 1.06973350e-02 1.28127253e-02
      6.54115202e-03 2.77630314e-02 3.68818380e-02 7.28550702e-02
      1.77381765e-02 1.45240286e-02 2.16844399e-02 2.04400998e-02
      -6.32155512e-04 -5.12730097e-04 7.79112219e-04 7.35396054e-04</_>
    <_>
      5.70998352e-04 -2.81951099e-04 6.67043554e-04 4.09974309e-04
      7.67078192e-04 2.11874823e-04 1.02789486e-02 4.99052601e-03
      6.52138493e-04 -1.71227218e-03 1.74367381e-03 2.79900804e-03
      -4.35519585e-04 -3.89990710e-05 4.80199640e-04 4.70616767e-04
      8.21353123e-03 -2.33426900e-03 1.20268548e-02 4.14956268e-03
      -2.23529264e-01 -3.48097026e-01 2.42225409e-01 3.59928012e-01
      2.12499335e-01 -2.16861293e-01 2.54494846e-01 2.40061894e-01
      2.06199777e-03 4.13193338e-04 3.53994104e-03 2.34372122e-03
      -1.47596737e-02 -3.28580616e-03 3.01124956e-02 2.49904972e-02
      -1.79035068e-01 4.19179946e-02 2.09808707e-01 1.77202672e-01
      3.73861969e-01 6.13083877e-02 3.89507949e-01 8.83556455e-02
      2.28716293e-03 -1.10788606e-04 2.60159001e-03 1.65214494e-03
      1.21212666e-04 -1.45852573e-05 1.79715076e-04 1.51865184e-04
      -4.23300751e-02 3.71810645e-02 4.26376574e-02 3.73894796e-02
      4.04638797e-02 1.09950174e-02 5.52636571e-02 1.84008479e-02
      -5.14057290e-04 -4.29448951e-03 2.97219795e-03 5.11915097e-03</_>
    <_>
      -8.36359523e-03 4.60614171e-03 9.27054044e-03 7.08455313e-03
      4.42160852e-02 3.78451608e-02 4.86579277e-02 5.27884178e-02
      -5.51387519e-02 2.88532153e-02 5.79588637e-02 3.17179598e-02
      1.37970073e-03 -4.04791150e-04 6.13370119e-03 3.74228740e-03
      5.81320096e-03 -1.01079512e-03 7.81571399e-03 6.89735729e-03
      -1.33328244e-01 -2.85097629e-01 1.93359733e-01 2.87571877e-01
      1.02500200e-01 -1.61288261e-01 3.80461276e-01 3.30057800e-01
      -4.57083508e-02 2.25315709e-02 5.81241548e-02 3.01301703e-02
      5.47747873e-03 2.12558487e-04 6.48701284e-03 5.08085545e-03
      -1.66831985e-01 2.48318747e-01 2.36347526e-01 2.70020664e-01
      2.62303263e-01 2.00206339e-01 2.71152049e-01 2.21189603e-01
      -5.83038665e-02 2.85933577e-02 5.92873283e-02 3.23658884e-02
      1.12273218e-03 -4.87417856e-04 2.00827932e-03 1.11790898e-03
      2.70322780e-03 -6.36503287e-03 6.08672760e-03 7.79282115e-03
      -2.37872843e-02 -4.91741449e-02 4.36880104e-02 5.36172539e-02
      5.45792561e-03 -4.63567581e-03 8.66865832e-03 6.09232485e-03</_>
    <_>
      1.04488456e-03 5.47132106e-04 1.04488456e-03 5.69443509e-04
      4.70221527e-02 2.36974377e-02 4.70221527e-02 2.61222366e-02
      -3.94411795e-02 4.36871313e-02 4.38125990e-02 6.05449006e-02
      1.16639752e-02 6.71678549e-03 1.17906798e-02 1.05328625e-02
      7.74228945e-02 4.13433462e-02 7.74228945e-02 4.13433462e-02
      -1.61530763e-01 -2.14688703e-01 2.59904295e-01 2.62408495e-01
      2.84164846e-01 -2.16610625e-01 2.90471792e-01 2.44406134e-01
      -5.30373072e-04 2.07327865e-03 4.07475512e-03 5.78774605e-03
      1.70585215e-02 1.66984499e-02 3.03706471e-02 2.17675138e-02
      -1.86695397e-01 2.22980067e-01 2.53302634e-01 2.60866165e-01
      2.73657650e-01 2.26291716e-01 2.78109401e-01 2.40540579e-01
      -1.76273880e-03 -7.61937234e-04 3.32145509e-03 2.71060970e-03
      -1.00444071e-02 -9.54112131e-03 1.04312645e-02 9.69629921e-03
      5.14184199e-02 -3.42569388e-02 5.24129309e-02 4.39266898e-02
      4.14121989e-03 -2.45274021e-03 4.25621914e-03 3.20104137e-03
      -3.65345273e-04 6.49158683e-05 5.56689047e-04 4.20855009e-04</_>
    <_>
      -5.67519397e-04 -8.59893626e-04 4.20864206e-03 1.68421597e-03
      2.45233756e-02 5.84335141e-02 5.90283424e-02 7.62069300e-02
      1.89579045e-03 -1.15869450e-04 2.87786638e-03 4.43070987e-03
      -3.92430695e-04 -1.10979803e-04 4.42523451e-04 6.17973739e-04
      3.56401578e-02 -1.41583243e-02 3.73239480e-02 1.64105017e-02
      -1.92064583e-01 -2.96462595e-01 1.98827639e-01 3.02693933e-01
      2.07121715e-01 -2.41488919e-01 2.15702981e-01 2.51813978e-01
      -3.09928996e-03 -1.57240487e-03 3.39168357e-03 4.81126364e-03
      7.87590072e-02 -3.00805047e-02 7.97926709e-02 3.03489435e-02
      -2.69021481e-01 1.53096840e-01 2.80534416e-01 2.05317289e-01
      3.25019032e-01 7.14932308e-02 3.33211213e-01 2.36255959e-01
      -2.67221039e-04 -8.17119051e-03 5.51265571e-03 1.10976808e-02
      1.13197444e-02 -3.48445773e-03 1.13335531e-02 3.87724093e-03
      -1.30429901e-02 -9.44755599e-03 3.85749750e-02 1.46223148e-02
      -9.75001603e-03 -4.09602188e-02 3.27005461e-02 4.87421677e-02
      2.77468865e-03 -2.24625133e-03 2.78524519e-03 2.93061044e-03</_>
    <_>
      1.47314901e-02 1.90905167e-03 1.47345345e-02 2.26531248e-03
      -2.01442353e-02 6.24980405e-03 3.33885737e-02 2.01649778e-02
      2.89527401e-02 7.09188208e-02 4.96830046e-02 7.11379126e-02
      -4.35252150e-04 1.93734933e-03 1.10910891e-03 2.71512591e-03
      6.69320449e-02 7.80886272e-03 6.69320449e-02 9.90572572e-03
      -1.25569716e-01 -2.83258736e-01 1.57524049e-01 2.84106344e-01
      2.94108659e-01 -2.18307763e-01 3.14281076e-01 2.39268675e-01
      -6.72863331e-03 -2.89796349e-02 1.09847737e-02 2.89796349e-02
      4.38553803e-02 1.45450654e-02 4.66210246e-02 1.65131465e-02
      -1.84464946e-01 2.10858434e-01 1.94342762e-01 2.16955677e-01
      2.99293458e-01 1.23081520e-01 3.73632699e-01 2.45244727e-01
      5.80798276e-03 1.22830058e-02 3.63595597e-02 2.12131273e-02
      9.20805673e-04 2.71425117e-03 8.51952564e-03 3.09629249e-03
      -6.76278770e-03 -4.27173674e-02 2.91608032e-02 4.87555303e-02
      1.98147222e-02 -1.90346353e-02 2.57778876e-02 2.26441920e-02
      1.70137893e-04 -3.85528849e-03 3.47777596e-03 4.31124168e-03</_>
    <_>
      4.52944572e-04 -4.43213066e-04 5.28230332e-04 5.51506528e-04
      -1.34120733e-02 -2.79377159e-02 1.41115608e-02 2.93310452e-02
      7.56275188e-03 -3.56784165e-02 3.73785533e-02 4.94638719e-02
      -5.35325053e-05 -5.86343871e-04 5.72354998e-04 5.96820726e-04
      -4.25371118e-02 8.34531151e-03 4.37439457e-02 6.19216487e-02
      -8.65110680e-02 -1.57594681e-01 1.46903753e-01 2.65378267e-01
      3.85500073e-01 1.63273537e-03 3.93209815e-01 6.84552416e-02
      -8.76949402e-04 7.85314711e-04 3.71484947e-03 2.42885412e-03
      -2.30746390e-03 6.18462404e-03 7.63677806e-03 9.19997320e-03
      -1.78390831e-01 3.94667625e-01 2.02500418e-01 4.01180983e-01
      2.35026151e-01 1.50673300e-01 2.40072787e-01 1.65763125e-01
      -1.50681194e-03 -3.65320547e-03 7.14384113e-03 5.11147827e-03
      3.12696211e-04 -4.06965264e-04 3.86840868e-04 4.36672068e-04
      6.38132624e-04 6.54191594e-04 2.02841498e-03 2.63058697e-03
      -3.38474894e-03 -5.14607200e-05 3.80520802e-03 2.20975163e-03
      2.41932750e-04 3.19227373e-04 1.60694215e-03 8.47676070e-04</_>
    <_>
      1.04404127e-04 5.74677775e-04 4.82018950e-04 7.34611589e-04
      2.25779451e-02 1.52820759e-02 2.26151962e-02 1.52820759e-02
      -2.06351466e-02 4.92015593e-02 5.25536276e-02 6.00708015e-02
      1.11468071e-02 6.31748047e-03 1.12114120e-02 9.10679251e-03
      1.33126359e-02 8.43920559e-03 1.38032725e-02 9.42656305e-03
      -9.09677744e-02 -1.82306334e-01 2.59679943e-01 2.72153407e-01
      2.78525203e-01 -2.38967672e-01 3.00227433e-01 2.73283482e-01
      3.28160659e-03 6.47463952e-04 3.68156657e-03 2.17990694e-03
      1.71240717e-02 9.15048365e-03 1.71240717e-02 9.15048365e-03
      -1.57661647e-01 2.79041350e-01 2.77023673e-01 2.97258556e-01
      2.13775426e-01 1.92527831e-01 2.89626211e-01 2.44323209e-01
      1.15441028e-02 -3.65224704e-02 1.86263341e-02 3.81684601e-02
      -6.83275750e-03 -5.50747197e-03 7.95334298e-03 8.26350506e-03
      3.48719247e-02 -3.48852538e-02 4.08082046e-02 4.62516397e-02
      -1.84755530e-02 -2.41969689e-03 2.52410825e-02 7.81066855e-03
      2.84769339e-03 7.36122485e-03 6.51910435e-03 7.62803154e-03</_>
    <_>
      4.30968030e-05 2.24344349e-05 6.59553288e-03 3.25125456e-03
      2.54492480e-02 4.51231338e-02 3.77941877e-02 4.93617170e-02
      1.22240873e-03 -2.24395702e-03 3.47921415e-03 6.66828034e-03
      -6.17350976e-04 1.43497473e-05 6.56576012e-04 2.63930968e-04
      2.64215935e-02 -1.07307164e-02 2.64215935e-02 1.09482910e-02
      -1.75843894e-01 -2.97266304e-01 3.18064868e-01 3.04715067e-01
      2.45812997e-01 -2.50394911e-01 2.51436144e-01 2.55472988e-01
      6.15164463e-04 9.55039985e-04 1.96346757e-03 2.14610109e-03
      2.04556752e-02 -7.50201289e-03 2.06087381e-02 9.06639267e-03
      -6.46497905e-02 1.60154983e-01 2.76832670e-01 2.46436894e-01
      2.30459213e-01 2.49222651e-01 2.43852496e-01 2.69337356e-01
      1.88499142e-03 -2.12571421e-03 3.48417764e-03 4.02961671e-03
      5.99794555e-04 8.84173351e-05 6.44921325e-04 7.98456371e-04
      2.30749324e-02 -8.86094291e-03 2.30749324e-02 9.03768558e-03
      -1.64045803e-02 -5.54073453e-02 4.96974438e-02 6.48372024e-02
      5.19672688e-03 -2.82123219e-03 6.54752227e-03 4.15127585e-03</_>
    <_>
      5.70421712e-03 -1.53375021e-03 6.93984888e-03 2.26913020e-03
      1.62160955e-02 4.29470465e-02 4.05613184e-02 4.91221324e-02
      -4.71209362e-03 1.91660458e-03 4.71209362e-03 3.27476114e-03
      -6.30413298e-04 2.90279277e-04 6.36128942e-04 4.96347959e-04
      5.03348261e-02 -1.64408833e-02 5.03596626e-02 1.68318134e-02
      -1.87928692e-01 -2.76790202e-01 3.32371831e-01 2.87099153e-01
      1.75296262e-01 -1.76152334e-01 2.89025337e-01 2.93507040e-01
      8.18413508e-04 7.29459757e-03 9.66608804e-03 3.01636886e-02
      3.57287675e-02 -9.35115013e-03 3.57586145e-02 1.12059200e-02
      -3.75375971e-02 1.69991061e-01 3.37937802e-01 2.74596721e-01
      1.89739108e-01 2.11466923e-01 2.80682266e-01 2.38961533e-01
      -1.71475846e-03 4.24489233e-04 3.18426196e-03 5.03908610e-03
      1.77385448e-03 -9.65660322e-04 2.03053909e-03 1.51524146e-03
      4.06179838e-02 -1.28180329e-02 4.06179838e-02 1.28180329e-02
      -1.65421106e-02 -4.71764691e-02 4.75924984e-02 5.48560768e-02
      -5.95129270e-04 -3.51285446e-04 1.39928714e-03 1.06160156e-03</_>
    <_>
      -7.17744185e-03 4.65190876e-03 1.09292250e-02 8.43322370e-03
      2.69641466e-02 3.81727032e-02 3.18007879e-02 4.53128777e-02
      -3.77988070e-03 1.92997092e-03 3.98003450e-03 3.21605988e-03
      -3.34565033e-04 2.08347163e-04 5.44623646e-04 4.76829475e-04
      4.79450673e-02 -2.76161991e-02 4.79450673e-02 2.76473239e-02
      -2.32921556e-01 -2.57809281e-01 3.20938259e-01 2.61828721e-01
      2.39047557e-01 -1.78264096e-01 2.91106135e-01 2.29120433e-01
      -3.33696371e-03 3.14105279e-03 3.51213943e-03 3.66649288e-03
      3.97742614e-02 -1.98078621e-02 4.00161818e-02 2.06850357e-02
      -5.45121841e-02 1.39823988e-01 3.58232796e-01 2.93353528e-01
      2.28784204e-01 2.22633883e-01 2.54441053e-01 2.22633883e-01
      -4.99016931e-03 -1.96993700e-03 5.00259502e-03 6.82452461e-03
      7.58666953e-04 7.48784296e-05 7.83331750e-04 7.01850047e-04
      4.49061655e-02 -2.41543092e-02 4.49061655e-02 2.42199786e-02
      -2.57950909e-02 -4.20662984e-02 4.54646386e-02 5.14823496e-02
      8.69900081e-03 -2.65032402e-03 1.12145925e-02 6.61306363e-03</_>
    <_>
      9.97223239e-03 -2.23147520e-03 9.97223239e-03 2.23147520e-03
      7.25426013e-03 4.25692573e-02 4.12962250e-02 5.17723784e-02
      -3.10995104e-03 1.78771734e-03 4.06025816e-03 3.68943322e-03
      -1.90008944e-03 -2.67794327e-04 4.32013255e-03 1.82779145e-03
      6.07089996e-02 -1.55699421e-02 6.08885661e-02 1.66408475e-02
      -1.70294821e-01 -2.39044294e-01 3.44562829e-01 2.52352089e-01
      2.04836518e-01 -2.05938190e-01 2.73408979e-01 2.42579862e-01
      -4.67253476e-03 6.63142512e-03 1.13765812e-02 8.68345704e-03
      4.49105874e-02 -8.13773274e-03 4.49791327e-02 1.14924759e-02
      -3.28573659e-02 1.71937302e-01 3.78462017e-01 2.59667635e-01
      1.90211207e-01 2.70185560e-01 2.37247095e-01 2.74199158e-01
      -2.51587783e-03 8.29068245e-04 2.64948560e-03 4.22232971e-03
      2.37964187e-03 -2.39411107e-04 2.40552356e-03 1.00263441e-03
      4.51788008e-02 -1.55730266e-02 4.51788008e-02 1.55730266e-02
      -1.55082522e-02 -4.71259579e-02 4.87470925e-02 5.59458584e-02
      -1.09883596e-03 3.88331857e-04 1.13981927e-03 6.23668311e-04</_>
    <_>
      -7.29867071e-03 6.81684446e-03 7.64717208e-03 9.94948111e-03
      3.93449180e-02 2.43383218e-02 4.20731865e-02 3.78348306e-02
      -1.19448570e-03 2.47192327e-02 1.57742836e-02 2.50178184e-02
      4.35578084e-04 -2.00572576e-05 5.46133029e-04 4.45181155e-04
      1.15585327e-02 -3.74485040e-03 1.25494618e-02 7.18007702e-03
      -1.80828393e-01 -2.67135412e-01 2.69099563e-01 2.75286525e-01
      2.97690600e-01 -2.44790092e-01 2.97690600e-01 2.52077758e-01
      2.43811472e-03 -4.45608865e-04 3.40027991e-03 3.97010753e-03
      8.30221176e-03 -6.54813042e-03 8.78013391e-03 7.13961478e-03
      -9.75698009e-02 2.00678691e-01 2.21550599e-01 2.55921155e-01
      2.58427054e-01 2.18994334e-01 2.72559732e-01 2.77992010e-01
      3.97946406e-03 -3.42412968e-03 4.82719624e-03 5.55727305e-03
      2.53560749e-04 2.99838081e-04 4.75015899e-04 6.45178952e-04
      1.25803007e-02 -9.13546141e-03 1.25803007e-02 9.29400232e-03
      -3.23355719e-02 -3.89858112e-02 4.71537523e-02 5.18372767e-02
      1.32110566e-02 -8.26964155e-03 1.35757877e-02 1.28422147e-02</_>
    <_>
      -1.15236677e-02 2.05239677e-03 1.20332986e-02 5.51078282e-03
      6.28248453e-02 6.95407682e-04 7.45653436e-02 3.63026150e-02
      8.82944907e-04 -1.53786241e-04 1.79435476e-03 2.51841987e-03
      2.48042197e-04 -6.43963212e-05 8.89418472e-04 7.41893949e-04
      3.38395964e-03 -2.71142670e-03 1.06245484e-02 1.02068959e-02
      -1.38313517e-01 -1.74828947e-01 2.92590648e-01 3.51231635e-01
      2.77085781e-01 -2.56355882e-01 2.95899272e-01 2.68118769e-01
      2.71557854e-03 -1.14845671e-03 4.07129619e-03 3.36368219e-03
      1.02431523e-02 -3.75822582e-03 1.05663110e-02 5.85249299e-03
      -1.64602056e-01 1.70300573e-01 2.13421375e-01 2.04721659e-01
      3.02685797e-01 1.83327183e-01 3.06510955e-01 2.37448812e-01
      -7.39764131e-04 -4.62560309e-03 8.24193843e-03 6.90734340e-03
      1.95427838e-05 -2.41702961e-04 4.59167757e-04 1.14607124e-03
      9.05578304e-03 -3.55454185e-03 9.23660584e-03 4.92482120e-03
      -3.28784958e-02 -4.19605710e-02 4.16455716e-02 5.57507239e-02
      1.34495255e-02 -5.54689905e-03 1.51656969e-02 1.10580018e-02</_>
    <_>
      5.99539198e-04 2.35062835e-04 6.76355325e-04 5.21755253e-04
      1.58619061e-02 6.90419693e-03 1.58619061e-02 7.32239429e-03
      -8.94053001e-03 5.55999614e-02 4.63395305e-02 6.62486851e-02
      5.12602099e-04 4.08889056e-04 5.70220931e-04 6.05599605e-04
      6.74427021e-03 1.23539940e-03 6.95495913e-03 6.11535506e-03
      -1.07735716e-01 -1.89199775e-01 2.35226318e-01 2.21190661e-01
      2.59205401e-01 -2.53686219e-01 2.72544235e-01 2.80941069e-01
      1.13720738e-03 -2.50949699e-04 2.78851110e-03 3.80999385e-03
      1.09850084e-02 2.36330437e-03 1.10294176e-02 4.32422059e-03
      -1.34859800e-01 2.63967514e-01 2.66032636e-01 2.66734928e-01
      2.43702114e-01 2.70654827e-01 2.88515121e-01 3.06324184e-01
      4.40432178e-03 -2.48687784e-03 6.83147600e-03 7.70220021e-03
      2.08272156e-03 5.35232131e-04 2.08272156e-03 5.90312411e-04
      3.22225392e-02 -5.71328998e-02 5.93948476e-02 7.21700713e-02
      -1.26394292e-03 5.29010780e-03 4.64720419e-03 7.19651999e-03
      -2.69515603e-03 -5.60922024e-04 4.12476668e-03 5.97613351e-03</_>
    <_>
      7.86948192e-04 8.61786772e-04 8.63631780e-04 1.01238932e-03
      2.48524174e-03 7.60815805e-03 3.97942867e-03 8.49436224e-03
      1.57510315e-03 4.32344945e-03 3.87463067e-03 9.41783469e-03
      -4.81111929e-04 1.01275672e-03 1.67632557e-03 2.27893610e-03
      -5.31581696e-03 2.35132826e-03 1.24393366e-02 1.75651535e-02
      -2.73146898e-01 -1.31671146e-01 3.05127412e-01 1.59890965e-01
      3.49308938e-01 -1.94311067e-01 3.71017605e-01 2.03494340e-01
      2.90319277e-03 4.28116880e-03 3.45527823e-03 4.39177267e-03
      6.29362743e-03 3.45740677e-03 6.75145164e-03 4.19555977e-03
      -2.07727984e-01 2.02174336e-01 2.32293665e-01 2.11071134e-01
      2.43839547e-01 2.61607498e-01 2.56138414e-01 2.70210773e-01
      3.54531268e-03 4.39993833e-04 8.58298037e-03 8.08425620e-03
      -2.30991907e-04 -4.04071499e-04 9.85540566e-04 2.36366061e-03
      8.14549904e-03 -7.02634640e-03 1.08561469e-02 1.01485280e-02
      1.04873488e-03 1.42496929e-03 4.74005239e-03 3.54729570e-03
      -3.87549546e-04 3.75852251e-04 1.14874425e-03 5.70017728e-04</_>
    <_>
      2.21318156e-02 8.44512135e-04 2.21397579e-02 3.53179034e-03
      2.96826288e-03 -3.16717010e-03 7.56304245e-03 7.68970605e-03
      -4.56166267e-03 4.99304943e-03 6.65961299e-03 9.98894405e-03
      -1.69051555e-03 9.12547621e-05 1.70149654e-03 1.17834692e-03
      4.17790227e-02 3.77897285e-02 5.15056290e-02 5.52915595e-02
      -2.82018453e-01 -2.25926355e-01 2.95543194e-01 2.39160702e-01
      2.73229450e-01 -9.04878527e-02 2.98822463e-01 1.86008871e-01
      -8.79109651e-03 3.68588651e-03 9.87857766e-03 1.15629304e-02
      6.41401624e-03 1.23074593e-03 6.97701378e-03 5.42750629e-03
      -2.97569036e-01 2.37728253e-01 3.02297115e-01 2.57157713e-01
      2.75366008e-01 8.83195475e-02 3.05013508e-01 1.66255444e-01
      -9.36212484e-03 -4.68874257e-03 1.23155015e-02 1.23170028e-02
      6.34045224e-04 -7.42195989e-04 9.48075089e-04 1.21036149e-03
      -7.74809509e-04 -1.76202192e-03 4.55684541e-03 5.38111432e-03
      -4.98518627e-03 -3.75403906e-03 7.50867976e-03 6.85109198e-03
      -7.35466136e-04 2.11362094e-05 8.86578055e-04 9.60880367e-04</_>
    <_>
      -8.54567508e-04 1.75272487e-03 1.53919612e-03 2.11499212e-03
      9.17091221e-03 1.25106715e-03 9.99736134e-03 7.70339044e-03
      -5.58463531e-03 -5.87486662e-03 9.94673651e-03 1.02657201e-02
      2.92247441e-05 -9.76525072e-04 1.96357910e-03 1.22527988e-03
      4.08431544e-04 6.11776311e-04 7.72451703e-03 8.88322853e-03
      -2.60634780e-01 -1.94086730e-01 2.71066159e-01 2.04250216e-01
      2.44164363e-01 -1.36840671e-01 2.97720999e-01 2.53632605e-01
      1.01273356e-03 6.79491833e-03 7.49891484e-03 1.23956800e-02
      -8.29800311e-03 4.95146541e-03 1.22739216e-02 1.90121979e-02
      -1.54612377e-01 8.58385488e-02 3.59480113e-01 3.24080080e-01
      1.79996699e-01 1.08245537e-01 4.13641006e-01 2.33437300e-01
      1.99543010e-03 1.94136729e-03 9.69097856e-03 6.02267589e-03
      6.02071123e-05 -4.46998311e-04 1.31709944e-03 8.02897557e-04
      -5.75439073e-03 6.58658296e-02 2.08730437e-02 7.03118742e-02
      9.62100551e-03 1.60927642e-02 2.13334858e-02 2.05555446e-02
      -7.00893346e-04 -1.39480748e-03 1.13073387e-03 1.79024215e-03</_>
    <_>
      -1.63571490e-03 1.14718813e-03 1.63571490e-03 1.55860942e-03
      3.21465940e-03 4.14853133e-02 3.29339392e-02 4.24358584e-02
      -1.85408313e-02 6.07364140e-02 4.92113829e-02 7.29698688e-02
      5.67691401e-03 2.63135787e-03 6.32199273e-03 3.30755999e-03
      -9.64933133e-04 -7.38030346e-03 4.15721862e-03 7.38030346e-03
      -1.84037209e-01 -2.50711024e-01 2.61150479e-01 2.83680022e-01
      2.68552423e-01 -1.87270924e-01 2.71418959e-01 2.14226767e-01
      1.74094655e-03 -3.39773920e-04 3.87317967e-03 6.38078572e-03
      1.31864205e-03 2.90618720e-03 5.92810242e-03 5.66502148e-03
      -1.69947669e-01 2.94379622e-01 2.72363216e-01 3.28598291e-01
      2.35168368e-01 2.01791450e-01 2.45345816e-01 2.17922181e-01
      -7.10091263e-04 -2.77493731e-03 1.14880800e-02 1.07822409e-02
      -8.87249503e-03 -3.71218426e-03 9.59164090e-03 5.85908722e-03
      3.80543619e-02 -4.28842865e-02 4.92585301e-02 5.80784120e-02
      2.82816775e-03 2.31425697e-03 5.85340103e-03 4.72401641e-03
      -1.60662236e-03 4.40095813e-04 4.52712225e-03 5.08323638e-03</_>
    <_>
      -1.05726824e-03 3.63019673e-04 1.51700317e-03 7.02910940e-04
      -3.07229580e-03 -2.38740933e-03 5.04369056e-03 4.92294785e-03
      -5.21315215e-03 2.71543075e-04 2.06021592e-02 8.95137340e-03
      -4.12014360e-03 -8.61299969e-03 1.01340814e-02 8.67763255e-03
      -5.15719694e-05 -6.53560366e-03 7.09213410e-03 6.59122737e-03
      -2.23208055e-01 -2.37660810e-01 2.68668205e-01 2.74067461e-01
      2.63510823e-01 -1.52647614e-01 3.13510239e-01 2.17157155e-01
      -1.08954525e-02 3.76025438e-02 2.83144526e-02 3.95275168e-02
      3.21166143e-02 -2.89348718e-02 4.34577949e-02 3.76053378e-02
      -2.07680106e-01 2.82641470e-01 2.53508955e-01 3.10439140e-01
      2.47031197e-01 1.92478165e-01 2.66025633e-01 2.11392358e-01
      1.83677371e-03 5.20510878e-03 6.63778093e-03 5.31245861e-03
      1.05658062e-02 7.08403718e-03 1.13296993e-02 7.79424841e-03
      8.22195224e-03 3.55217606e-03 1.20259644e-02 5.32450015e-03
      3.29064811e-03 2.77398597e-03 8.23239423e-03 9.72673204e-03
      -1.90263102e-03 -2.46462226e-03 5.72078535e-03 4.99441754e-03</_>
    <_>
      -1.37788791e-03 3.56967066e-04 4.84148413e-03 6.10731728e-03
      3.09195998e-03 1.95898907e-03 1.47758145e-02 1.08356047e-02
      -2.68525817e-02 4.18874552e-05 3.98940146e-02 1.88977811e-02
      7.38912681e-03 -1.13944290e-03 7.60912988e-03 8.10422935e-03
      6.58584177e-04 -1.66393314e-02 2.11756974e-02 2.89556608e-02
      -1.75040424e-01 -2.31157839e-01 3.42921942e-01 3.42911065e-01
      2.26336181e-01 -1.22666970e-01 2.96870142e-01 2.19209477e-01
      1.08132614e-02 2.77986880e-02 1.48627739e-02 2.95761209e-02
      4.80871387e-02 -1.89523604e-02 5.49373403e-02 4.37858328e-02
      -1.56174347e-01 2.79035509e-01 2.60018826e-01 3.24442446e-01
      2.30017751e-01 1.88400447e-01 2.43976340e-01 1.97867498e-01
      1.36253086e-03 3.76328267e-03 5.27407881e-03 6.12879265e-03
      9.50269576e-04 6.83479430e-03 8.53134785e-03 7.67597044e-03
      2.12736577e-02 5.44908317e-03 2.30913647e-02 6.93898695e-03
      3.94628057e-03 2.69328780e-03 1.26265204e-02 4.91795689e-03
      -3.09870718e-03 -4.41285595e-03 7.24683143e-03 7.13046594e-03</_>
    <_>
      -1.68302667e-03 -2.13319156e-03 1.96713884e-03 5.75623428e-03
      3.44666140e-03 5.07158786e-03 1.98321827e-02 1.61414668e-02
      -3.27670835e-02 4.05955240e-02 6.30706996e-02 6.71579540e-02
      7.52146065e-04 -8.26078653e-03 8.27464275e-03 1.07276523e-02
      -2.73061171e-03 3.47638479e-03 7.49876397e-03 8.28896556e-03
      -2.44278088e-01 -2.33251527e-01 2.89240986e-01 2.60289729e-01
      1.80629119e-01 -1.12284653e-01 3.81541967e-01 2.51772225e-01
      1.58262979e-02 5.57833388e-02 2.38097794e-02 5.60477115e-02
      2.40343194e-02 -3.25897783e-02 4.26922292e-02 4.07254994e-02
      -1.79893434e-01 2.58103818e-01 2.56679535e-01 2.80411690e-01
      2.39887640e-01 2.14806110e-01 2.47067288e-01 2.16153011e-01
      -1.35280786e-03 2.30118213e-03 2.98315100e-03 4.48434521e-03
      5.87031851e-03 8.49473663e-03 1.03298603e-02 8.57288856e-03
      9.30770207e-03 6.46252884e-03 1.27488784e-02 7.50003615e-03
      7.87549652e-05 -9.34546333e-05 7.57038221e-03 7.36555457e-03
      -1.96135300e-03 -2.27421615e-03 5.14291134e-03 3.88270034e-03</_>
    <_>
      -8.12271668e-04 -9.91328969e-04 9.29194794e-04 1.23690756e-03
      -3.37233441e-03 -5.17932884e-03 5.51706273e-03 7.50816241e-03
      -3.18829343e-02 5.20761833e-02 5.64789996e-02 7.43288323e-02
      8.16554669e-03 2.62356806e-03 8.39869492e-03 4.49288497e-03
      -1.24582136e-02 -5.26068872e-03 1.47431456e-02 9.94222239e-03
      -1.77673951e-01 -2.63432264e-01 2.43498594e-01 2.87945390e-01
      2.45922506e-01 -1.79885283e-01 2.64322996e-01 2.58708000e-01
      4.44328692e-03 -3.23608110e-04 7.65407411e-03 6.41069422e-03
      1.34497928e-02 -2.60140132e-02 3.93492095e-02 3.09994631e-02
      -1.57663375e-01 2.75207311e-01 2.83586770e-01 3.18268865e-01
      2.43328914e-01 1.99807197e-01 2.48066828e-01 2.35742256e-01
      -4.31612413e-03 -7.57241738e-04 1.13492291e-02 7.64018856e-03
      -2.76266737e-03 8.81368178e-04 1.64461620e-02 9.53898486e-03
      4.38823067e-02 -4.67596948e-02 5.65612726e-02 6.18581548e-02
      5.68529265e-03 3.98945296e-03 8.17013159e-03 5.94741898e-03
      -3.00048734e-03 -2.04791711e-03 4.84082242e-03 4.29796567e-03</_>
    <_>
      4.58887866e-04 2.84207617e-05 1.05731864e-03 1.23536226e-03
      3.88435251e-03 2.22896435e-03 1.26873218e-02 1.10465307e-02
      -6.44108187e-03 -1.47985178e-03 2.06326824e-02 1.02242902e-02
      -1.37552246e-03 -1.07464436e-02 8.49637855e-03 1.15033071e-02
      -2.02842522e-03 -7.87100289e-03 9.78243258e-03 1.02743190e-02
      -2.07928523e-01 -2.30473757e-01 2.52735078e-01 2.33151749e-01
      2.53770620e-01 -1.87956735e-01 3.45422655e-01 2.30304584e-01
      -4.23380127e-03 4.74308506e-02 3.65561992e-02 4.80289571e-02
      1.19932583e-02 -4.00672965e-02 4.80366498e-02 4.60961387e-02
      -1.06566437e-01 2.78354168e-01 2.87204683e-01 2.98346609e-01
      2.45926246e-01 2.30719551e-01 2.57530153e-01 2.39625692e-01
      4.72482387e-03 1.07130916e-04 6.17057504e-03 6.98609417e-03
      7.80811766e-03 1.44338533e-02 1.05022844e-02 1.44372378e-02
      -2.73816939e-03 3.27295018e-03 1.71738863e-02 1.04008205e-02
      3.21794627e-03 -1.20540811e-02 1.42344171e-02 1.38934134e-02
      -7.51239713e-03 -7.24641606e-03 1.01644918e-02 9.83939972e-03</_>
    <_>
      1.19410874e-03 -1.02850134e-02 6.38150889e-03 1.04666203e-02
      1.01222917e-02 -5.61777828e-03 1.41986795e-02 7.53015047e-03
      -2.82587134e-03 6.55202835e-04 7.72592193e-03 1.07501866e-02
      -2.88266363e-03 4.06875368e-03 5.73656894e-03 6.82298094e-03
      2.12070569e-02 3.96790802e-02 4.71381582e-02 5.53577691e-02
      -1.45403862e-01 -2.40205720e-01 2.43980661e-01 2.75756359e-01
      2.05743387e-01 -2.35633343e-01 2.33419076e-01 2.50787616e-01
      -1.35343475e-03 -2.71723955e-03 4.55691013e-03 8.72863829e-03
      -5.03500504e-03 3.81658506e-03 6.32477086e-03 4.08085762e-03
      -2.68900543e-01 1.89613745e-01 2.92856365e-01 2.81329513e-01
      2.63880491e-01 1.62675366e-01 3.42824727e-01 2.61294991e-01
      -1.03322426e-02 -4.54941168e-02 3.71474177e-02 4.62281443e-02
      -5.60755434e-04 4.31200460e-04 1.13776629e-03 1.43057702e-03
      -3.16101988e-03 5.25243720e-03 7.53784832e-03 6.67531788e-03
      -1.27460798e-02 4.62553184e-03 1.79046802e-02 1.08029936e-02
      -3.92971048e-03 1.04529820e-02 1.12047400e-02 1.12943361e-02</_>
    <_>
      3.22607637e-04 3.20372963e-03 2.25633848e-03 4.79380367e-03
      7.61386612e-03 -5.80691267e-03 1.84600092e-02 3.22449058e-02
      -2.32717544e-02 4.97927479e-02 6.09765723e-02 7.08627924e-02
      1.05469767e-02 2.61542574e-03 1.05773387e-02 4.64947848e-03
      1.39276991e-02 6.71022292e-03 2.38801651e-02 1.84939113e-02
      -2.12731630e-01 -1.79723114e-01 2.50313401e-01 2.69406706e-01
      2.76383907e-01 -1.73206374e-01 3.56804311e-01 2.52248824e-01
      3.30779925e-02 5.98589191e-03 3.57899591e-02 8.16348288e-03
      6.06482755e-03 -8.05858616e-03 8.18155706e-03 1.00004133e-02
      -2.03704625e-01 2.33761728e-01 2.45442405e-01 2.80337065e-01
      2.68040776e-01 1.93235993e-01 2.70896316e-01 2.04691902e-01
      2.33707801e-02 -1.31243141e-02 3.57848145e-02 1.52603053e-02
      -1.09799672e-02 -3.96611961e-03 1.11917211e-02 6.50644815e-03
      4.69692871e-02 -4.07247581e-02 5.10258637e-02 6.23799376e-02
      1.42901379e-03 -2.73806538e-04 4.47622221e-03 4.39185044e-03
      -3.08262487e-03 -2.51256162e-03 7.08063645e-03 4.15206002e-03</_>
    <_>
      3.59944510e-03 7.30134081e-04 7.26749748e-03 4.48870845e-03
      -1.32300644e-04 -1.04476977e-02 8.16606916e-03 1.28356125e-02
      -6.35143416e-03 -7.46171549e-03 7.37965014e-03 1.11520151e-02
      1.12589146e-03 -5.00592170e-04 1.89954159e-03 1.33189268e-03
      -1.43880434e-02 -7.09290570e-03 3.97388488e-02 6.83398098e-02
      -1.03892364e-01 -2.75988281e-01 2.99022585e-01 3.86358112e-01
      2.59336710e-01 -1.54948577e-01 2.92011052e-01 1.82509646e-01
      -5.49197849e-03 -2.40042660e-04 9.63292457e-03 1.29952505e-02
      5.22639183e-03 -1.37177538e-02 5.80489635e-02 4.96486649e-02
      -1.30137280e-01 2.24913105e-01 2.46937588e-01 3.39590311e-01
      2.33251527e-01 1.11786194e-01 2.93651700e-01 2.20759630e-01
      -2.71703526e-02 -1.79945789e-02 3.98493931e-02 4.42719758e-02
      -2.22820276e-03 5.30786579e-03 2.56940047e-03 5.93861006e-03
      6.37940597e-03 1.74943160e-03 1.02621811e-02 8.74488335e-03
      -6.74243132e-03 -9.01779626e-03 1.03894267e-02 9.67601500e-03
      -2.14086776e-03 -1.81899918e-03 2.30961619e-03 2.27698754e-03</_>
    <_>
      -3.48178350e-04 1.30443383e-04 5.28073928e-04 4.45083366e-04
      -1.59591921e-02 -7.23345950e-03 4.07441631e-02 1.14154313e-02
      7.98926502e-03 -1.71771869e-02 6.04139604e-02 2.29871217e-02
      1.54831912e-03 3.05715541e-04 1.64055044e-03 7.54202134e-04
      -2.81741749e-03 -6.72954647e-03 4.80386382e-03 7.08442368e-03
      -2.19825909e-01 -2.72080064e-01 2.35512450e-01 3.35612297e-01
      2.27667913e-01 -2.98816357e-02 3.07800591e-01 3.16920906e-01
      2.48164451e-03 -1.14748174e-04 3.69418925e-03 7.60245835e-03
      -3.81506654e-03 -3.28826020e-03 9.10621043e-03 8.75075068e-03
      -1.51945844e-01 2.38478228e-01 3.83839846e-01 2.77115762e-01
      2.15300903e-01 1.11031882e-01 2.54975855e-01 1.59927458e-01
      4.27795155e-03 -6.96941046e-04 6.75274618e-03 2.69367243e-03
      3.65177402e-03 -1.05231593e-03 8.66835471e-03 2.57203938e-03
      8.56404286e-03 3.55437887e-03 2.94297040e-02 9.52036865e-03
      -1.73580286e-03 -2.25327071e-03 4.25400678e-03 3.99797829e-03
      6.20467064e-04 -2.75797036e-04 7.79266527e-04 5.59167354e-04</_>
    <_>
      -8.76672784e-05 3.74478579e-04 4.63598844e-04 7.44066492e-04
      -2.00185855e-03 2.48275883e-03 7.26640038e-03 5.87552227e-03
      -6.32899068e-03 1.40691618e-03 6.62066741e-03 4.96636238e-03
      -4.21089178e-04 1.83576645e-04 4.69610328e-04 5.80667052e-04
      -2.12383573e-03 -5.84712485e-03 3.58986971e-03 6.58588763e-03
      -1.44235402e-01 -1.90486103e-01 1.72360823e-01 2.97430545e-01
      1.43668994e-01 -1.61541343e-01 1.90758705e-01 2.33088002e-01
      -8.85221642e-03 2.49491353e-03 9.55160148e-03 1.50590586e-02
      -3.54665779e-02 -2.06116885e-02 8.06277543e-02 5.89180328e-02
      5.42886667e-02 9.64641199e-02 3.53080004e-01 2.45733887e-01
      1.33101568e-01 7.46604130e-02 6.58929944e-01 1.36009902e-01
      -5.44649037e-03 6.19206671e-03 8.48758314e-03 9.12966859e-03
      -2.68399809e-03 7.32897269e-03 4.33843257e-03 7.68824853e-03
      -2.08459445e-03 1.47890756e-02 2.53739748e-02 1.50313647e-02
      1.58416689e-03 8.26899894e-03 5.41258045e-03 9.10340715e-03
      7.07309446e-05 -5.25727693e-04 4.31101769e-04 1.08600291e-03</_>
    <_>
      7.06585124e-04 -6.08570757e-04 7.91394210e-04 9.76050971e-04
      -3.41073168e-03 -3.85268289e-03 5.38560236e-03 5.13518648e-03
      -1.99469225e-03 -2.02601142e-02 8.24349467e-03 2.09110752e-02
      5.22332964e-04 -4.13635373e-03 9.44709347e-04 4.30318573e-03
      -4.84082922e-02 -2.60659736e-02 6.08209334e-02 4.28126045e-02
      -1.43028572e-01 -2.69116193e-01 3.78502399e-01 2.94267416e-01
      1.55200243e-01 -7.15326592e-02 3.88187170e-01 3.53116155e-01
      3.46855423e-03 -6.24605129e-03 2.38115434e-02 3.94333228e-02
      7.63680832e-03 3.33201252e-02 1.24169942e-02 3.33201252e-02
      -1.09740384e-01 2.60900944e-01 2.09230572e-01 2.86037117e-01
      1.12629808e-01 5.66832609e-02 3.23973566e-01 1.57662436e-01
      2.37923930e-03 2.60864012e-02 3.49908019e-03 2.78789066e-02
      2.84885959e-04 -3.76416865e-04 5.79952379e-04 4.35814552e-04
      -1.60806421e-02 1.54787228e-02 2.17203386e-02 1.82261933e-02
      1.09004499e-02 3.91046517e-02 2.97871642e-02 4.17148545e-02
      1.60922573e-04 -2.47769203e-04 3.02755099e-04 3.43717256e-04</_>
    <_>
      -6.29316855e-05 1.39619762e-04 3.57397337e-04 3.16847378e-04
      -1.18522835e-03 1.65374367e-03 1.38240412e-03 3.02085956e-03
      1.35971676e-03 1.25274097e-03 2.00051581e-03 2.00816896e-03
      -7.57121656e-04 -1.27649680e-03 1.04082737e-03 1.64435501e-03
      -6.88361004e-03 -4.07270854e-03 8.48235283e-03 6.30697515e-03
      -2.69838482e-01 -1.28397018e-01 3.03888917e-01 2.28316963e-01
      3.07563454e-01 -2.31292307e-01 3.22748929e-01 2.54737914e-01
      -7.19564734e-04 3.57571617e-03 2.61247484e-03 5.31967264e-03
      -3.43760662e-03 4.32117470e-03 4.94186115e-03 7.96081871e-03
      -2.18722105e-01 1.70813069e-01 2.33209327e-01 1.75594151e-01
      2.29740709e-01 2.40256488e-01 3.41098696e-01 2.44048029e-01
      -9.34094656e-04 1.08781597e-03 1.89383340e-03 1.60935509e-03
      -4.71911080e-05 -3.25355868e-05 2.84580688e-04 2.70471384e-04
      5.96738362e-04 -1.65146624e-03 2.19842349e-03 3.14627495e-03
      -6.08520058e-04 -2.35390547e-03 2.35268241e-03 3.58859729e-03
      -2.60260247e-04 -2.66345916e-04 3.38327751e-04 6.71320129e-04</_>
    <_>
      7.04099610e-03 -1.39312132e-03 7.14550819e-03 1.60527485e-03
      1.83702691e-03 -1.37339695e-03 2.71219504e-03 1.81295443e-03
      -4.26708924e-04 -1.02041078e-04 1.18695037e-03 1.63161347e-03
      -4.86382138e-04 -1.83767610e-04 5.20405418e-04 4.02594538e-04
      5.87323122e-02 8.22423957e-03 6.61308393e-02 3.08297221e-02
      -1.80024371e-01 -2.47694165e-01 2.02570036e-01 2.57201076e-01
      1.81494519e-01 -1.60259545e-01 2.04999253e-01 2.06868708e-01
      -1.87551300e-03 -1.72515435e-03 2.59483093e-03 3.44673661e-03
      1.00028059e-02 1.16772242e-02 1.91302020e-02 1.58252455e-02
      -2.98435211e-01 1.09225631e-01 4.84169871e-01 2.14292586e-01
      3.42903405e-01 6.06045015e-02 3.43524814e-01 1.49894282e-01
      -4.48120013e-03 -8.18966306e-04 6.19055144e-03 3.65344714e-03
      1.27530104e-04 -8.82480002e-04 3.44697415e-04 8.82480002e-04
      -1.72598269e-02 1.21655157e-02 1.78272463e-02 1.72794200e-02
      1.42952511e-02 1.86646301e-02 1.70132276e-02 2.67106127e-02
      -3.67159490e-04 -1.22960273e-03 4.75063047e-04 1.22960273e-03</_>
    <_>
      2.92064069e-04 -1.74805493e-04 7.33583642e-04 6.29180460e-04
      -4.72793207e-02 -3.36709879e-02 4.78160083e-02 4.21542637e-02
      3.84963118e-02 2.28969213e-02 4.59822789e-02 4.41871397e-02
      9.58852543e-05 -4.30920409e-05 1.98077512e-04 2.36640815e-04
      -3.89192440e-02 4.32673935e-03 3.89192440e-02 6.18780963e-02
      -1.39159784e-01 -9.82521027e-02 1.88131630e-01 1.76885262e-01
      4.04349864e-01 -6.66515157e-02 4.13494170e-01 9.37678069e-02
      -8.00276524e-04 1.75720186e-03 2.32816511e-03 2.62767053e-03
      -1.43677387e-02 9.80381016e-03 1.44903688e-02 1.22223757e-02
      -1.51010871e-01 3.74128491e-01 1.60447657e-01 4.09439176e-01
      1.92683190e-01 1.73869371e-01 2.83442497e-01 1.77702859e-01
      3.89614631e-03 1.51423656e-03 5.09964861e-03 2.37067835e-03
      -4.60259238e-04 2.41757618e-04 5.14637330e-04 2.84580892e-04
      -7.47262151e-04 1.70471414e-03 2.81621772e-03 2.10443535e-03
      -2.10650917e-03 1.99827622e-03 3.02452734e-03 2.28877412e-03
      1.02842308e-03 -7.27985434e-06 1.14753284e-03 2.70605233e-04</_>
    <_>
      1.05351319e-04 7.52677370e-05 2.61568639e-04 3.64869367e-04
      4.80901304e-04 -2.84679560e-03 1.29967870e-03 2.95209605e-03
      -1.40887883e-03 -4.44769766e-03 2.85501778e-03 4.51741926e-03
      -4.01673111e-04 -7.81854265e-04 5.36594016e-04 1.11197832e-03
      -1.42364250e-02 -2.77258959e-02 1.52144795e-02 2.83170212e-02
      -1.40194297e-01 -3.63876015e-01 1.94821239e-01 3.64313513e-01
      1.94191068e-01 -1.90131992e-01 2.36235291e-01 2.39821151e-01
      -6.36791985e-04 1.97496032e-03 1.72253628e-03 2.97974050e-03
      -5.69033474e-02 1.83754098e-02 5.69033474e-02 3.04690320e-02
      -1.24015793e-01 8.59302282e-02 2.00564668e-01 1.94339350e-01
      4.05822426e-01 8.91505182e-02 4.29228663e-01 1.14981718e-01
      -6.00436889e-03 -1.51972184e-02 1.50736868e-02 2.14940440e-02
      -6.00077386e-04 -3.37679900e-04 6.71900401e-04 4.88898251e-04
      -2.31081191e-02 4.59365882e-02 2.36386210e-02 4.74436656e-02
      2.41288953e-02 1.33146960e-02 4.20870073e-02 1.91757940e-02
      -1.77424704e-03 5.01871854e-03 4.02167765e-03 5.85095072e-03</_>
    <_>
      7.91865925e-04 7.17387709e-04 1.71151361e-03 1.09721627e-03
      -1.75712910e-02 1.21259931e-02 4.00508828e-02 3.63433547e-02
      4.29267669e-03 5.45195956e-03 4.83302623e-02 1.86013598e-02
      8.63183010e-03 2.91134929e-04 8.63183010e-03 3.04819550e-03
      -7.19315326e-03 -2.36465200e-03 8.96373019e-03 5.64931659e-03
      -1.19261712e-01 -2.75544822e-01 1.68070093e-01 3.56169671e-01
      1.62280485e-01 -1.40944853e-01 3.22488040e-01 1.95526332e-01
      -6.81574736e-03 -2.79813539e-03 4.24866192e-02 4.59588729e-02
      -4.40677890e-04 4.25184611e-03 7.39927636e-03 6.22409303e-03
      -1.94064528e-01 2.94823050e-01 2.34271824e-01 3.22719634e-01
      2.46420830e-01 7.24120140e-02 3.86676282e-01 2.15762079e-01
      -2.45441776e-02 6.49958570e-03 5.45965582e-02 3.04879155e-02
      7.68840138e-04 3.17558646e-04 9.85588180e-04 6.30174764e-04
      5.46156289e-03 8.00865411e-04 1.63431074e-02 6.44744281e-03
      -9.54621471e-03 1.11627132e-02 6.14772290e-02 3.28792408e-02
      -4.89321910e-03 4.56962734e-03 9.12824832e-03 6.20169984e-03</_>
    <_>
      1.88304912e-04 9.25847737e-04 5.87732880e-04 9.31861578e-04
      7.33752560e-04 4.93687484e-03 9.01027769e-03 6.90657273e-03
      -8.71176086e-03 5.61269559e-03 9.31133144e-03 6.45653391e-03
      -1.38548668e-03 3.41652456e-04 1.51351246e-03 9.96054034e-04
      -1.21690123e-03 -1.29034673e-03 5.11085894e-03 6.96752500e-03
      -1.24892265e-01 -2.89758891e-01 3.65110666e-01 3.15823823e-01
      9.67390910e-02 -1.25540897e-01 2.09190324e-01 1.66600943e-01
      6.45282120e-03 6.64701127e-03 1.67550519e-02 1.05876029e-02
      -6.07685698e-03 1.60020927e-03 6.45638816e-03 7.24730082e-03
      -2.60546774e-01 2.76247770e-01 2.85725027e-01 2.82447308e-01
      2.90097117e-01 1.39422327e-01 3.04445177e-01 2.59526491e-01
      -3.33946152e-03 7.16981525e-03 8.98155104e-03 8.27873964e-03
      -2.36926091e-04 1.89320723e-04 9.84990969e-04 1.39161549e-03
      1.14360498e-03 5.93689317e-03 6.55910233e-03 7.21049355e-03
      -2.82482663e-03 6.86491985e-05 6.49703061e-03 3.82809388e-03
      -5.37343381e-04 -1.43516727e-03 1.61293102e-03 1.99542614e-03</_>
    <_>
      1.59633128e-04 1.43876253e-03 1.21969648e-03 1.91436068e-03
      4.42479795e-04 -1.09686926e-02 4.26224945e-03 1.36852590e-02
      2.09042849e-03 1.46340652e-04 9.11906268e-03 7.77583057e-03
      -3.62457882e-04 -3.24787601e-04 6.73063623e-04 8.53670819e-04
      -9.34758689e-03 -5.03819156e-03 1.05909286e-02 7.14490144e-03
      -2.81966627e-01 -2.62960464e-01 2.90189654e-01 2.68286437e-01
      3.06912899e-01 -1.17064960e-01 3.17274034e-01 2.51616895e-01
      -9.11784451e-03 1.53976749e-03 9.37534217e-03 1.04817646e-02
      -6.72653178e-03 2.82304455e-03 7.32456334e-03 6.47813221e-03
      -1.48340955e-01 2.58777827e-01 3.79908353e-01 2.68913925e-01
      1.54108897e-01 1.40613914e-01 1.89004675e-01 1.89384922e-01
      2.55713426e-03 -6.85772114e-03 9.42801498e-03 2.24499665e-02
      -4.75381414e-04 8.12973376e-05 8.25758325e-04 5.57647436e-04
      -4.13243280e-04 7.18359742e-03 8.48006923e-03 7.40751205e-03
      -1.62527279e-03 -1.25791328e-02 8.57181847e-03 1.73431113e-02
      -1.03248050e-03 -1.10781810e-03 1.35405222e-03 1.36392657e-03</_>
    <_>
      1.01723615e-03 7.23740784e-04 1.09298620e-03 8.09418561e-04
      3.59057231e-05 7.29942322e-03 5.34416595e-03 7.50805112e-03
      2.36632046e-03 1.69150415e-03 5.73149929e-03 6.17965776e-03
      3.37874197e-04 7.05758021e-06 9.87373758e-04 1.45955500e-03
      -1.01092001e-02 3.27535276e-03 1.83858555e-02 1.42852431e-02
      -1.21172026e-01 -1.16565309e-01 1.96129203e-01 2.33252451e-01
      1.67573288e-01 -2.36686334e-01 3.57059360e-01 2.57915407e-01
      2.82254536e-04 7.58764683e-04 4.42792615e-03 5.18654753e-03
      3.73018906e-04 5.64339291e-03 9.15160310e-03 7.19312299e-03
      -2.88703054e-01 1.41146824e-01 3.04904759e-01 3.26997459e-01
      2.82370299e-01 2.48975620e-01 2.99278945e-01 2.54717350e-01
      6.36329083e-03 1.48741971e-03 7.43869320e-03 7.50164827e-03
      9.56599906e-05 -6.67851127e-04 6.67358923e-04 1.00714888e-03
      3.74295446e-03 -2.19246256e-03 5.92540577e-03 5.22089843e-03
      1.58257724e-03 3.51170730e-03 5.27765369e-03 5.49780065e-03
      -2.98190396e-04 7.49813567e-04 8.23691313e-04 1.01624732e-03</_>
    <_>
      1.54192187e-03 2.41382004e-04 2.48242472e-03 2.60878517e-03
      7.92917563e-04 -6.83079567e-03 7.72658456e-03 9.76512861e-03
      -2.29915092e-03 2.16879486e-03 5.25629381e-03 7.49663590e-03
      -3.89920373e-04 -3.21146537e-04 5.07236575e-04 1.17273675e-03
      -1.11513436e-02 -1.93467597e-03 1.32159377e-02 7.01760128e-03
      -2.13820502e-01 -2.64813930e-01 2.50103503e-01 2.64813930e-01
      2.45024711e-01 -1.75501779e-01 2.78913915e-01 3.03872377e-01
      -8.12597980e-04 -5.17034903e-03 1.08407037e-02 7.76600465e-03
      -8.84324219e-03 2.35314225e-03 9.34555568e-03 5.09250816e-03
      -1.81497961e-01 2.46578455e-01 3.94972503e-01 2.90142000e-01
      1.53228775e-01 1.13660216e-01 2.32741386e-01 2.53471613e-01
      1.26586733e-02 -4.48781269e-04 1.59146767e-02 8.30560550e-03
      4.44457051e-04 -9.52948685e-05 7.49107683e-04 9.73085756e-04
      -5.80849824e-04 -6.80309080e-04 5.94622269e-03 5.56879351e-03
      -3.60002625e-03 -4.03126050e-03 4.10121446e-03 9.55029111e-03
      -1.27887318e-03 -1.33488292e-03 1.45217229e-03 1.59912172e-03</_>
    <_>
      -3.28801828e-03 3.25139146e-03 5.67800179e-03 8.64657387e-03
      6.71708910e-03 -1.68152582e-02 2.99923122e-02 2.57197674e-02
      9.24439635e-03 -3.60611156e-02 2.94460915e-02 3.70191112e-02
      -2.70651726e-05 8.49661519e-05 2.93053832e-04 2.86768656e-04
      -3.32937613e-02 1.51410727e-02 5.01413085e-02 6.66749775e-02
      -4.85953838e-02 -1.08849615e-01 1.46273613e-01 2.99755007e-01
      3.62244993e-01 -6.39298409e-02 3.95696610e-01 1.30858466e-01
      9.95913637e-04 -5.74624864e-04 2.11233716e-03 2.26621330e-03
      1.69782080e-02 5.16037317e-03 3.69044431e-02 1.68014057e-02
      -2.03235328e-01 3.59174430e-01 2.21522659e-01 3.59174430e-01
      2.11864367e-01 1.81763306e-01 2.91877925e-01 1.95063874e-01
      9.40103491e-04 7.06821913e-04 1.63139973e-03 1.68635242e-03
      2.88101542e-03 -3.53232084e-04 3.46968323e-03 2.16107583e-03
      -4.33294423e-04 1.37366052e-03 2.15222687e-03 1.46266178e-03
      -3.54852964e-04 3.33316508e-04 4.93286923e-03 1.61717262e-03
      1.15085415e-04 7.97790126e-05 3.37003818e-04 2.43855015e-04</_>
    <_>
      -6.20273277e-05 -2.40197369e-05 5.41569141e-04 4.93914296e-04
      -2.76455972e-02 -1.38642965e-02 3.35030034e-02 4.97544780e-02
      2.48597953e-02 4.18540929e-03 5.34634069e-02 2.79292073e-02
      -3.28046177e-03 2.25971313e-03 3.91761260e-03 6.33000676e-03
      -4.60268493e-04 -2.11714534e-04 3.18739167e-03 3.42616183e-03
      -2.20118359e-01 -1.62028864e-01 3.45321566e-01 3.82334471e-01
      2.21238658e-01 -6.76617250e-02 3.82589787e-01 2.05136463e-01
      -2.21043602e-02 1.43799151e-03 2.64891163e-02 3.25072631e-02
      2.86431122e-03 1.41787867e-04 5.77372732e-03 5.27153630e-03
      -1.87721089e-01 2.34718964e-01 2.24423215e-01 2.85605311e-01
      1.65950090e-01 4.78336513e-02 3.32327992e-01 1.95549756e-01
      -5.94350509e-03 6.31137285e-03 1.08384322e-02 8.11832584e-03
      1.39725511e-04 2.09364021e-04 1.08563039e-03 5.10913727e-04
      -2.62517296e-02 9.41639952e-03 2.95262374e-02 2.37751082e-02
      1.20109366e-02 -7.72168254e-03 4.97140586e-02 2.68041547e-02
      -6.92660469e-05 1.47383194e-04 4.72025597e-04 3.77455784e-04</_>
    <_>
      -4.50337597e-04 1.23954832e-03 1.96867832e-03 1.87591661e-03
      1.99276154e-04 1.59535545e-03 4.57617221e-03 4.48210491e-03
      -4.90235456e-04 -2.63626076e-04 3.38429608e-03 5.23367431e-03
      1.25597129e-04 -1.58817740e-04 2.71724391e-04 8.98300845e-04
      -1.16469222e-03 1.51324552e-03 2.17704335e-03 4.29358752e-03
      -2.01011926e-01 -2.34699935e-01 2.96862572e-01 2.83524811e-01
      2.04846516e-01 -6.08921163e-02 3.38933855e-01 1.10821165e-01
      -3.70501913e-03 -9.49687616e-04 6.38923887e-03 3.88358976e-03
      -1.62782501e-02 -5.93208661e-03 2.14212034e-02 1.71132851e-02
      -1.64879128e-01 1.83174059e-01 4.74319071e-01 3.49906474e-01
      2.48728588e-01 5.54404631e-02 2.80939788e-01 9.32860598e-02
      -1.47678554e-02 -4.25317790e-03 2.09169071e-02 1.87132601e-02
      6.45398046e-04 -6.53830648e-04 1.60808745e-03 1.33293250e-03
      -1.59356103e-03 5.79237659e-03 5.53903170e-03 8.25844053e-03
      -1.24091201e-03 2.34962744e-03 4.22775466e-03 3.92181473e-03
      -2.74715509e-04 -2.47085816e-04 9.19900020e-04 1.25143072e-03</_>
    <_>
      2.61639099e-04 2.29713740e-04 1.66855671e-03 1.19493355e-03
      3.20495176e-03 1.99425290e-03 4.68798866e-03 5.39892167e-03
      -2.98262574e-04 3.05168238e-03 3.52851418e-03 5.43957902e-03
      7.87266617e-05 5.43101691e-04 6.17794634e-04 1.64099562e-03
      2.68444768e-03 -1.11947920e-04 3.95246362e-03 4.51518549e-03
      -1.96303830e-01 -2.20854610e-01 1.98745057e-01 2.29298696e-01
      1.86654538e-01 -1.89739972e-01 2.96386868e-01 2.35599160e-01
      -9.41811712e-04 -1.96329638e-04 2.05420400e-03 3.19083035e-03
      -7.65675120e-03 -1.17865754e-02 2.81518530e-02 3.59041952e-02
      -2.47743160e-01 1.54356003e-01 3.99496764e-01 2.48008609e-01
      2.47337177e-01 1.32898122e-01 3.78214002e-01 2.70918310e-01
      1.45700136e-02 -3.10740876e-03 2.28898562e-02 3.60187255e-02
      2.50497600e-04 4.32729546e-04 7.92100152e-04 6.66053966e-04
      -5.57675841e-04 -2.44806171e-03 9.47917439e-03 1.17172087e-02
      3.95341450e-03 -1.70777930e-04 5.51190926e-03 6.45676861e-03
      3.29505507e-04 -3.67491128e-04 3.60569276e-04 5.78401494e-04</_>
    <_>
      1.00892573e-03 -4.82011633e-03 1.07071269e-02 8.42829328e-03
      2.32593324e-02 -2.12613139e-02 2.47168597e-02 2.69550886e-02
      -2.32883799e-03 -1.09927065e-03 1.00479601e-02 7.19870348e-03
      9.06832342e-04 1.71768406e-04 1.88585022e-03 1.67907134e-03
      -3.78487147e-02 3.04345824e-02 5.17038293e-02 3.54517139e-02
      -4.63107415e-03 -2.10720927e-01 2.96938360e-01 4.56481844e-01
      1.68238357e-01 -1.92071050e-01 2.67629325e-01 2.55086541e-01
      -7.37367151e-03 1.29531021e-03 1.28080100e-02 8.99135694e-03
      7.56253954e-03 -3.21946642e-03 9.46311839e-03 8.70044529e-03
      -2.46639341e-01 2.49036461e-01 2.59420812e-01 2.78525680e-01
      2.45081589e-01 1.17324933e-01 2.58165836e-01 1.61096692e-01
      -2.41382979e-03 -2.40599457e-03 1.08807990e-02 6.79751765e-03
      -5.13541652e-03 -2.14917939e-02 6.64406130e-03 2.54144892e-02
      5.27811237e-02 -3.08444835e-02 5.46057709e-02 6.40233234e-02
      -1.33786248e-02 6.80769654e-03 1.61871575e-02 2.68591326e-02
      3.10157938e-03 -2.37867050e-03 3.37561313e-03 6.45973207e-03</_>
    <_>
      -1.07110616e-04 8.42040845e-06 1.25565377e-04 6.97747746e-05
      -1.72629007e-04 -1.52590306e-04 1.48420234e-03 2.32200907e-03
      -1.34293211e-03 -1.48972205e-03 4.82461322e-03 2.01332546e-03
      1.30211076e-04 -3.22895969e-04 2.68715608e-04 3.98524484e-04
      -4.49411198e-03 -6.50047138e-03 5.14872232e-03 6.65335404e-03
      -1.61805898e-01 -3.87212873e-01 1.87760726e-01 3.87212873e-01
      1.69438243e-01 -1.34008333e-01 3.46273959e-01 2.23175794e-01
      8.74145655e-04 6.15407247e-04 1.73068047e-03 6.46152021e-03
      -3.23743001e-02 -4.85081598e-02 3.59249152e-02 5.54270856e-02
      -1.93050411e-02 1.40601266e-02 1.99276164e-01 2.49693364e-01
      3.60858291e-01 3.96036506e-02 4.11834240e-01 5.55532351e-02
      4.84106131e-05 4.13659291e-04 7.56484107e-04 1.74510176e-03
      -4.54213849e-04 4.56631678e-04 1.54046738e-03 1.51290279e-03
      -2.31504347e-03 2.38358648e-03 2.25013904e-02 1.49856331e-02
      5.28475158e-02 7.35154201e-04 5.99855892e-02 8.83767474e-03
      -3.08895775e-04 -1.03340391e-03 5.53586287e-04 1.78139412e-03</_>
    <_>
      -2.58362037e-03 2.21332395e-03 4.51918039e-03 2.53407238e-03
      5.46325324e-03 2.52796197e-03 9.31130257e-03 7.03108311e-03
      -2.93644355e-03 -8.44580773e-03 4.78919130e-03 8.96705128e-03
      -6.51703813e-05 -3.28944188e-05 9.37461038e-04 1.46791327e-03
      -1.23307866e-03 -4.21732524e-03 1.63126830e-03 4.47567552e-03
      -1.79258034e-01 -2.58050144e-01 2.27889478e-01 2.63128161e-01
      2.03845754e-01 -1.19573519e-01 2.26614207e-01 1.61780760e-01
      3.73655977e-03 6.11251080e-03 4.25048219e-03 6.19676290e-03
      8.12349282e-03 -2.64473464e-02 3.03700790e-02 2.71454807e-02
      -3.90292071e-02 2.04956472e-01 5.44846117e-01 3.60139430e-01
      1.54743046e-01 1.77979678e-01 2.85873234e-01 1.86147004e-01
      4.34379530e-04 3.99671262e-04 1.54186867e-03 2.42958870e-03
      -8.23706505e-04 1.02028633e-02 7.22278561e-03 1.07276766e-02
      1.51006747e-02 6.68359455e-03 2.63935421e-02 1.96383074e-02
      7.15954811e-04 -2.56169308e-03 2.44083279e-03 4.36446071e-03
      -6.00365980e-04 -9.36924422e-04 9.58394899e-04 1.64284196e-03</_>
    <_>
      3.21542029e-04 -1.63432967e-04 3.96599731e-04 3.47947527e-04
      -1.54695464e-02 -1.99870579e-02 6.74455911e-02 5.30950353e-02
      2.98862960e-02 -5.14217978e-03 3.19052897e-02 2.85122171e-02
      -3.48493544e-04 -3.15991820e-05 1.53094123e-03 6.44124113e-04
      4.29530814e-03 -2.48729787e-03 6.46442408e-03 5.06670121e-03
      -2.58016229e-01 -1.20207220e-01 3.50929499e-01 3.74384165e-01
      3.32432449e-01 -9.35033485e-02 3.32432449e-01 2.40529671e-01
      -8.81011598e-04 -3.28795076e-03 1.00281844e-02 4.32782015e-03
      4.92485706e-03 -9.38824785e-04 5.48193324e-03 1.96500914e-03
      -8.47291350e-02 2.75258064e-01 2.20461413e-01 2.91743547e-01
      1.17423020e-01 1.29266471e-01 2.71653861e-01 1.76205054e-01
      -2.42149062e-03 -4.15727322e-04 5.50263841e-03 4.58717579e-03
      4.31048800e-04 -3.39812017e-04 8.59919528e-04 5.46878146e-04
      -2.23063063e-02 -5.01180533e-03 2.72588301e-02 1.07690496e-02
      2.15826984e-02 -3.11887916e-02 3.11575569e-02 3.38183343e-02
      1.36490999e-04 -1.21173716e-05 9.65525629e-04 4.27185179e-04</_>
    <_>
      9.36101598e-04 -2.30936988e-04 9.36101598e-04 6.65950589e-04
      -3.78810726e-02 1.13904132e-02 4.41137813e-02 3.46521810e-02
      2.34620459e-02 -9.48482007e-03 6.85246438e-02 4.34539765e-02
      -7.33998531e-05 -1.38673626e-04 1.17159833e-03 4.70226718e-04
      1.72641396e-03 -2.09479663e-03 2.57433066e-03 4.36042435e-03
      -2.64298975e-01 -1.50850877e-01 2.88019419e-01 2.42826834e-01
      2.34614477e-01 -1.84715483e-02 4.16171938e-01 2.90284932e-01
      -2.81717209e-03 1.47993851e-05 8.45718477e-03 2.64811097e-03
      2.20853533e-03 -8.81039246e-04 3.59647232e-03 2.58234609e-03
      -2.12958261e-01 1.74819261e-01 2.33511552e-01 2.02129886e-01
      1.92797467e-01 1.26639158e-01 3.88761014e-01 2.52497047e-01
      -5.09954523e-03 -2.81539001e-03 6.30393950e-03 4.63875523e-03
      4.70013256e-05 -8.05704476e-05 4.42451943e-04 8.72029865e-04
      -5.67299780e-03 -3.59430932e-03 8.90447386e-03 8.19607545e-03
      6.69549312e-03 -4.89973603e-03 2.70924158e-02 6.47338433e-03
      -1.70844747e-03 -7.60306430e-04 1.93316268e-03 9.72410955e-04</_>
    <_>
      3.86013021e-03 -1.95699953e-03 7.25777028e-03 3.93763371e-03
      -1.48927663e-02 -4.64509502e-02 2.26183478e-02 4.94555719e-02
      2.75160391e-02 -1.10795777e-02 2.92404965e-02 2.04294529e-02
      -5.12037717e-04 1.08065503e-03 8.22439557e-04 2.20657769e-03
      2.78921761e-02 -1.28111131e-02 3.53877172e-02 2.24630609e-02
      -1.50111884e-01 -1.64911777e-01 3.46822113e-01 4.14223820e-01
      2.69285977e-01 -4.76494916e-02 4.07007545e-01 1.14575595e-01
      -2.53391769e-02 8.27942602e-03 5.93904667e-02 4.03981842e-02
      2.55098566e-02 -2.91252782e-05 4.65979166e-02 1.91672370e-02
      1.26930065e-02 2.65583158e-01 1.35850728e-01 3.03174078e-01
      1.36043891e-01 8.05338174e-02 3.90508831e-01 1.55792505e-01
      -1.32530509e-03 3.06751230e-03 4.32032626e-03 7.33558508e-03
      3.79480980e-03 5.79970249e-04 9.70200915e-03 1.73578062e-03
      1.33075919e-02 5.54335210e-03 2.19823699e-02 1.01947235e-02
      8.36020615e-03 3.18265054e-03 3.92667241e-02 7.27339182e-03
      -1.80736330e-04 1.70293584e-04 7.06956198e-04 7.95551925e-04</_>
    <_>
      3.56675708e-03 -5.84022084e-04 3.56675708e-03 7.88240228e-04
      -7.17199873e-03 3.27186584e-02 2.58432850e-02 4.99576628e-02
      2.34706122e-02 1.01118293e-02 2.49518938e-02 1.92881841e-02
      2.95886450e-04 1.85178251e-05 4.55494475e-04 1.39172992e-03
      2.51700580e-02 -5.77902887e-03 2.51700580e-02 6.32015523e-03
      -2.39068493e-01 -1.98410422e-01 3.83531392e-01 2.13252723e-01
      3.32345635e-01 -1.44414425e-01 3.35418046e-01 1.80414498e-01
      -1.63680071e-03 -2.42154510e-03 3.74051277e-03 9.94726922e-03
      2.68587526e-02 -2.69937515e-03 2.68587526e-02 3.50838853e-03
      -1.75850973e-01 1.21612839e-01 2.62181640e-01 2.74397731e-01
      3.03117067e-01 1.09463289e-01 3.13762009e-01 1.78990319e-01
      -1.26126583e-03 -6.89523341e-03 2.32175668e-03 8.61042086e-03
      3.94285517e-03 2.89359625e-04 3.94285517e-03 1.03907357e-03
      4.52871341e-03 -4.34149848e-03 1.61987636e-02 1.41598815e-02
      4.00134316e-03 -1.79122444e-02 1.40138241e-02 1.90943182e-02
      -3.21859494e-04 -1.04919274e-03 3.24864668e-04 1.12274091e-03</_>
    <_>
      3.48518137e-03 -7.08641717e-04 3.49050504e-03 7.95557338e-04
      2.09180042e-02 1.29569862e-02 2.62937415e-02 1.85304508e-02
      2.23140735e-02 4.90019284e-03 2.23140735e-02 7.68511230e-03
      1.28568569e-03 -3.07277107e-04 1.28568569e-03 5.17613022e-04
      2.32394729e-02 -2.27854261e-03 2.32666004e-02 5.48574096e-03
      -6.90931082e-02 -2.07756206e-01 2.70636588e-01 2.43561670e-01
      3.75125885e-01 -1.71648383e-01 3.75125885e-01 2.01114953e-01
      8.00400786e-03 7.30355969e-04 8.09400436e-03 2.99291755e-03
      2.38604322e-02 -1.18957413e-03 2.38604322e-02 6.36419700e-03
      -2.15499699e-02 1.66716442e-01 2.05482572e-01 2.26842016e-01
      3.68780315e-01 1.72801420e-01 3.68780315e-01 1.89314365e-01
      6.59630820e-03 -9.84507496e-04 6.69376040e-03 7.15401536e-03
      4.43031639e-03 -4.20841301e-04 4.43031639e-03 8.35577317e-04
      1.77726839e-02 -1.05608711e-02 2.67919656e-02 1.34361498e-02
      2.58778278e-02 -1.50547763e-02 2.58778278e-02 1.58004761e-02
      1.13638805e-03 -6.06296293e-04 1.14825892e-03 1.00592745e-03</_>
    <_>
      8.37450905e-04 -1.71642096e-04 1.28242734e-03 9.65980580e-04
      1.01936166e-03 1.36042724e-03 3.59794986e-03 6.97666779e-03
      -1.41704353e-02 -1.67145319e-02 1.81389824e-02 2.10915431e-02
      -1.23917148e-03 -4.22291690e-03 9.20392666e-03 1.16222594e-02
      7.51549285e-03 2.65406165e-03 8.14010855e-03 9.29535087e-03
      -1.61819294e-01 -2.55802900e-01 2.47855768e-01 3.13810647e-01
      1.44285381e-01 -5.38090728e-02 3.35144728e-01 2.67550141e-01
      -8.07695277e-03 3.30284983e-02 2.05351822e-02 3.41668017e-02
      1.52009139e-02 -1.92596912e-02 3.75825465e-02 2.77092922e-02
      3.30705605e-02 2.03564391e-01 3.94432753e-01 3.13815594e-01
      1.02041245e-01 1.19109824e-01 3.97464514e-01 2.31863171e-01
      -1.44670904e-03 -1.78566703e-03 8.18628259e-03 9.08237603e-03
      3.84406606e-03 2.38937815e-03 8.52993783e-03 3.56204854e-03
      3.79417324e-03 -2.69340293e-04 7.82569870e-03 8.37611221e-03
      2.72768829e-03 -2.74461857e-03 7.14078732e-03 1.11919753e-02
      -6.40125247e-04 -2.41675205e-03 2.25341436e-03 3.09491414e-03</_>
    <_>
      2.72274902e-03 3.19600478e-03 3.58480820e-03 3.31272045e-03
      6.89679524e-03 7.30583025e-03 9.90881305e-03 1.54569335e-02
      -3.07419617e-03 6.75769243e-03 3.52680013e-02 2.28961166e-02
      -3.53952963e-03 -5.82601456e-03 7.33375223e-03 8.78021214e-03
      1.24780377e-02 -6.47392590e-04 1.32238101e-02 9.49660130e-03
      -1.48884937e-01 -2.80111641e-01 2.65585899e-01 3.15730661e-01
      1.80019692e-01 -1.01631247e-01 3.41355473e-01 2.09929481e-01
      1.42520247e-02 1.80189479e-02 2.33441908e-02 3.13637778e-02
      -7.67852878e-03 -1.45844836e-02 2.10908577e-02 2.34910138e-02
      -7.33880326e-02 2.11209893e-01 3.40689123e-01 3.81814748e-01
      2.40653157e-01 1.55603901e-01 2.58843422e-01 2.25056246e-01
      -1.77641753e-02 -8.64454545e-03 3.43887322e-02 3.97765189e-02
      2.08070342e-04 1.15888042e-03 9.75435693e-03 3.99755035e-03
      2.72618067e-02 1.19291982e-02 5.54532446e-02 2.14656871e-02
      5.16029308e-03 -3.19975894e-03 1.20235393e-02 8.15777294e-03
      1.86930294e-03 2.65853084e-03 3.27582704e-03 3.34065477e-03</_>
    <_>
      1.09610963e-03 1.99733491e-04 1.51416822e-03 6.10830961e-04
      -3.88619080e-02 9.20246635e-03 4.36213464e-02 2.42680144e-02
      3.44264731e-02 1.54200161e-03 4.37541194e-02 2.70087533e-02
      -2.92544835e-04 7.01123863e-05 1.59619364e-03 7.95147324e-04
      8.01093318e-03 -1.79047254e-03 1.08439643e-02 3.75497551e-03
      -1.77895159e-01 -1.91999599e-01 1.99610800e-01 2.70213693e-01
      1.64489374e-01 2.85892840e-03 4.24958646e-01 1.54677570e-01
      -1.01915868e-02 -1.01802102e-03 1.06547642e-02 3.46832979e-03
      5.79154165e-03 -3.43437516e-03 1.48750376e-02 5.96629223e-03
      -2.43618861e-01 1.26435697e-01 3.21292937e-01 3.86669517e-01
      2.48051420e-01 1.34994229e-02 3.92558724e-01 1.33278951e-01
      -9.84935183e-03 -2.74185935e-04 1.07234661e-02 5.90230664e-03
